{"learner":{"attributes":{"scikit_learn":"{\"_estimator_type\": \"classifier\"}"},"feature_names":[],"feature_types":[],"gradient_booster":{"model":{"cats":{"enc":[],"feature_segments":[],"sorted_idx":[]},"gbtree_model_param":{"num_parallel_tree":"1","num_trees":"100"},"iteration_indptr":[0,1,2,3,4,5,6,7,8,9,10,11,12,13,14,15,16,17,18,19,20,21,22,23,24,25,26,27,28,29,30,31,32,33,34,35,36,37,38,39,40,41,42,43,44,45,46,47,48,49,50,51,52,53,54,55,56,57,58,59,60,61,62,63,64,65,66,67,68,69,70,71,72,73,74,75,76,77,78,79,80,81,82,83,84,85,86,87,88,89,90,91,92,93,94,95,96,97,98,99,100],"tree_info":[0,0,0,0,0,0,0,0,0,0,0,0,0,0,0,0,0,0,0,0,0,0,0,0,0,0,0,0,0,0,0,0,0,0,0,0,0,0,0,0,0,0,0,0,0,0,0,0,0,0,0,0,0,0,0,0,0,0,0,0,0,0,0,0,0,0,0,0,0,0,0,0,0,0,0,0,0,0,0,0,0,0,0,0,0,0,0,0,0,0,0,0,0,0,0,0,0,0,0,0],"trees":[{"base_weights":[9.326195E-8,-1.9922417E0,1.4372858E0,5.970496E-1,-1.9999104E0,-1.9980829E0,1.6652441E0,-1.1999245E-1,-1.9999294E0,4.7369415E-1,-5.999212E-1,-1.8717914E0,1.83723E0,-1.9999303E-1,-5.999817E-1,5.9705323E-1,-1.9991429E0,1.9458045E0,2.482336E-4,-5.453745E-2,-5.998896E-1,-1.8822787E0,1.974294E0,5.9984595E-1,-1.9591194E0,5.779938E-1,-5.9930795E-1,-5.9835595E-1,1.9862666E0,5.801775E-1,-1.9909015E0,-5.8892775E-1,1.988011E0,4.909194E-1,-1.9958364E0,-1.7580984E0,1.9896501E0,3.6000758E-1,-1.997484E0,4.4000927E-1,-5.88223E-1,-1.7777368E0,1.9910281E0,-4.444118E-1,-1.9988574E0,4.000084E-1,-5.8603424E-1,-4.812377E-1,5.9772944E-1,3.3334035E-1,-4.1537592E-1,-1.4999372E-1,-5.9973973E-1],"categories":[],"categories_nodes":[],"categories_segments":[],"categories_sizes":[],"default_left":[0,0,0,0,0,0,0,0,0,0,0,0,0,0,0,0,0,0,0,0,0,0,0,0,0,0,0,0,0,0,0,0,0,0,0,0,0,0,0,0,0,0,0,0,0,0,0,0,0,0,0,0,0],"id":0,"left_children":[1,3,5,-1,7,9,11,-1,13,-1,-1,15,17,-1,-1,-1,19,21,23,-1,-1,25,27,-1,29,-1,-1,-1,31,-1,33,-1,35,-1,37,39,41,-1,43,-1,-1,45,47,49,51,-1,-1,-1,-1,-1,-1,-1,-1],"loss_changes":[7.181108E5,3.2137812E3,1.14092125E5,0E0,2.375E0,5.68125E1,8.3112E4,0E0,3.125E-2,0E0,0E0,3.1199492E3,2.5985312E4,0E0,0E0,0E0,5.0898438E0,1.3419656E4,2.8489127E4,0E0,0E0,4.0355957E2,5.8061562E3,0E0,4.583047E2,0E0,0E0,0E0,8.4259375E2,0E0,6.8490234E1,0E0,7.50625E2,0E0,2.155957E1,3.800078E1,6.3496875E2,0E0,6.8710938E0,0E0,0E0,2.720404E1,6.1665625E2,8.119643E0,4.9902344E-1,0E0,0E0,0E0,0E0,0E0,0E0,0E0,0E0],"parents":[2147483647,0,0,1,1,2,2,4,4,5,5,6,6,8,8,11,11,12,12,16,16,17,17,18,18,21,21,22,22,24,24,28,28,30,30,32,32,34,34,35,35,36,36,38,38,41,41,42,42,43,43,44,44],"right_children":[2,4,6,-1,8,10,12,-1,14,-1,-1,16,18,-1,-1,-1,20,22,24,-1,-1,26,28,-1,30,-1,-1,-1,32,-1,34,-1,36,-1,38,40,42,-1,44,-1,-1,46,48,50,52,-1,-1,-1,-1,-1,-1,-1,-1],"split_conditions":[2.00001E0,2.00001E0,2.00001E0,5.970496E-1,2.00001E0,2.00001E0,2.00001E0,-1.1999245E-1,2.00001E0,4.7369415E-1,-5.999212E-1,2.00001E0,2.00001E0,-1.9999303E-1,-5.999817E-1,5.9705323E-1,2.00001E0,2.00001E0,2.00001E0,-5.453745E-2,-5.998896E-1,2.00001E0,2.00001E0,5.9984595E-1,2.00001E0,5.779938E-1,-5.9930795E-1,-5.9835595E-1,2.00001E0,5.801775E-1,2.00001E0,-5.8892775E-1,2.00001E0,4.909194E-1,2.00001E0,2.00001E0,2.00001E0,3.6000758E-1,2.00001E0,4.4000927E-1,-5.88223E-1,2.00001E0,2.00001E0,2.00001E0,2.00001E0,4.000084E-1,-5.8603424E-1,-4.812377E-1,5.9772944E-1,3.3334035E-1,-4.1537592E-1,-1.4999372E-1,-5.9973973E-1],"split_indices":[12,42,98,0,1,5,197,0,91,0,0,42,1,0,0,0,91,389,42,0,0,42,763,0,82,0,0,0,1666,0,80,0,1158,0,48,5,1617,0,49,0,0,5,1729,6,24,0,0,0,0,0,0,0,0],"split_type":[0,0,0,0,0,0,0,0,0,0,0,0,0,0,0,0,0,0,0,0,0,0,0,0,0,0,0,0,0,0,0,0,0,0,0,0,0,0,0,0,0,0,0,0,0,0,0,0,0,0,0,0,0],"sum_hessian":[2.5078575E5,1.05102E5,1.4568375E5,2.015E2,1.049005E5,9.065E3,1.3661875E5,1.5E0,1.04899E5,3.75E0,9.06125E3,6.3345E3,1.3028425E5,1.25E0,1.0489775E5,2.0175E2,6.13275E3,1.230135E5,7.27075E3,1.75E0,6.131E3,9.0825E2,1.2210525E5,3.59875E3,3.672E3,2.625E1,8.82E2,3.6675E2,1.217385E5,2.925E1,3.64275E3,5.325E1,1.2168525E5,4.5E0,3.63825E3,5.275E1,1.216325E5,1.5E0,3.63675E3,2.75E0,5E1,4.4E1,1.215885E5,3.5E0,3.63325E3,2E0,4.2E1,4.7E1,1.215415E5,1.25E0,2.25E0,1E0,3.63225E3],"tree_param":{"num_deleted":"0","num_feature":"4096","num_nodes":"53","size_leaf_vector":"1"}},{"base_weights":[-7.1934905E-5,-1.5428131E0,1.1122638E0,4.6263024E-1,-1.54876E0,-1.5472893E0,1.2886361E0,-8.6960986E-2,-1.5487765E0,3.7976077E-1,-4.6459356E-1,-1.4494122E0,1.4216949E0,-1.2300627E-1,-4.6463582E-1,4.6263275E-1,-1.5481629E0,1.5056577E0,3.5878186E-4,-4.414925E-2,-4.6457198E-1,-1.4569896E0,1.5277003E0,4.6453473E-1,-1.5165787E0,4.4971117E-1,-4.641756E-1,-4.6352708E-1,1.5369692E0,4.5118693E-1,-1.5414099E0,-4.57119E-1,1.5383255E0,3.913218E-1,-1.5454234E0,-8.055729E-1,1.5392789E0,3.0163524E-1,-1.546838E0,-1.3545942E0,1.5405521E0,-6.857725E-2,-1.5478531E0,3.5701075E-1,-4.5664096E-1,-4.1088083E-1,4.6248707E-1,1.0655036E-1,-1.3901216E-1,-5.2555647E-2,-4.645753E-1],"categories":[],"categories_nodes":[],"categories_segments":[],"categories_sizes":[],"default_left":[0,0,0,0,0,0,0,0,0,0,0,0,0,0,0,0,0,0,0,0,0,0,0,0,0,0,0,0,0,0,0,0,0,0,0,0,0,0,0,0,0,0,0,0,0,0,0,0,0,0,0],"id":1,"left_children":[1,3,5,-1,7,9,11,-1,13,-1,-1,15,17,-1,-1,-1,19,21,23,-1,-1,25,27,-1,29,-1,-1,-1,31,-1,33,-1,35,-1,37,-1,39,-1,41,43,45,47,49,-1,-1,-1,-1,-1,-1,-1,-1],"loss_changes":[3.9397662E5,1.7669219E3,6.257639E4,0E0,1.578125E0,3.360547E1,4.558036E4,0E0,3.90625E-1,0E0,0E0,1.7153066E3,1.4238047E4,0E0,0E0,0E0,3.0009766E0,7.3589375E3,1.563238E4,0E0,0E0,2.2443933E2,3.1871562E3,0E0,2.5449463E2,0E0,0E0,0E0,4.6515625E2,0E0,4.0109863E1,0E0,4.528125E2,0E0,1.3575684E1,0E0,4.1259375E2,0E0,4.8901367E0,2.2929047E1,3.4934375E2,7.218526E-1,3.067871E0,0E0,0E0,0E0,0E0,0E0,0E0,0E0,0E0],"parents":[2147483647,0,0,1,1,2,2,4,4,5,5,6,6,8,8,11,11,12,12,16,16,17,17,18,18,21,21,22,22,24,24,28,28,30,30,32,32,34,34,36,36,38,38,39,39,40,40,41,41,42,42],"right_children":[2,4,6,-1,8,10,12,-1,14,-1,-1,16,18,-1,-1,-1,20,22,24,-1,-1,26,28,-1,30,-1,-1,-1,32,-1,34,-1,36,-1,38,-1,40,-1,42,44,46,48,50,-1,-1,-1,-1,-1,-1,-1,-1],"split_conditions":[2.00001E0,2.00001E0,2.00001E0,4.6263024E-1,2.00001E0,2.00001E0,2.00001E0,-8.6960986E-2,2.00001E0,3.7976077E-1,-4.6459356E-1,2.00001E0,2.00001E0,-1.2300627E-1,-4.6463582E-1,4.6263275E-1,2.00001E0,2.00001E0,2.00001E0,-4.414925E-2,-4.6457198E-1,2.00001E0,2.00001E0,4.6453473E-1,2.00001E0,4.4971117E-1,-4.641756E-1,-4.6352708E-1,2.00001E0,4.5118693E-1,2.00001E0,-4.57119E-1,2.00001E0,3.913218E-1,2.00001E0,-8.055729E-1,2.00001E0,3.0163524E-1,2.00001E0,2.00001E0,2.00001E0,2.00001E0,2.00001E0,3.5701075E-1,-4.5664096E-1,-4.1088083E-1,4.6248707E-1,1.0655036E-1,-1.3901216E-1,-5.2555647E-2,-4.645753E-1],"split_indices":[12,42,98,0,91,5,197,0,13,0,0,42,1,0,0,0,91,389,42,0,0,42,763,0,82,0,0,0,1666,0,80,0,1096,0,48,0,1158,0,91,5,1617,28,406,0,0,0,0,0,0,0,0],"split_type":[0,0,0,0,0,0,0,0,0,0,0,0,0,0,0,0,0,0,0,0,0,0,0,0,0,0,0,0,0,0,0,0,0,0,0,0,0,0,0,0,0,0,0,0,0,0,0,0,0,0,0],"sum_hessian":[2.2958195E5,9.6182445E4,1.3339952E5,1.8456053E2,9.599788E4,8.295921E3,1.2510359E5,1.4866803E0,9.599639E4,3.5472965E0,8.292374E3,5.7973545E3,1.1930624E5,1.1642323E0,9.599523E4,1.8478932E2,5.612565E3,1.1265151E5,6.6547334E3,1.7486975E0,5.6108164E3,8.31478E2,1.1182003E5,3.293537E3,3.361196E3,2.4174442E1,8.073036E2,3.3578296E2,1.1148425E5,2.692067E1,3.3342754E3,4.888652E1,1.1143536E5,4.2394457E0,3.3300361E3,2.4510632E1,1.1141085E5,1.4524397E0,3.3285835E3,4.853319E1,1.1136232E5,2.3311422E0,3.3262524E3,2.6210983E0,4.5912094E1,4.0512356E1,1.11321805E5,1.1727635E0,1.1583787E0,1.898759E0,3.3243538E3],"tree_param":{"num_deleted":"0","num_feature":"4096","num_nodes":"51","size_leaf_vector":"1"}},{"base_weights":[-2.2903185E-4,-1.3396316E0,9.641114E-1,4.0136904E-1,-1.3448039E0,-1.3434272E0,1.1169153E0,-3.971293E-2,-4.0344712E-1,3.2451412E-1,-4.0340587E-1,-1.2583096E0,1.2321773E0,4.0137163E-1,-1.3441799E0,1.3048394E0,4.7246792E-4,-3.5767917E-2,-4.0338346E-1,-1.2639738E0,1.3239348E0,4.033399E-1,-1.3158699E0,3.8829878E-1,-4.0297225E-1,-1.0652845E0,1.3329784E0,3.897665E-1,-1.3376524E0,3.9737904E-1,-1.567495E0,-1.5795736E0,1.3344629E0,3.3442315E-1,-1.3413444E0,-4.022147E-1,-1.1078324E0,4.903131E-1,-5.791307E-1,-4.8234725E-1,1.33575E0,2.610356E-1,-1.342731E0,-1.079176E0,1.3364482E0,-1.3308744E-1,-1.3440263E0,-4.0263525E-1,4.0129006E-1,2.839022E-1,-2.76292E-1,-7.095206E-2,-4.0330344E-1],"categories":[],"categories_nodes":[],"categories_segments":[],"categories_sizes":[],"default_left":[0,0,0,0,0,0,0,0,0,0,0,0,0,0,0,0,0,0,0,0,0,0,0,0,0,0,0,0,0,0,0,0,0,0,0,0,0,0,0,0,0,0,0,0,0,0,0,0,0,0,0,0,0],"id":2,"left_children":[1,3,5,-1,7,9,11,-1,-1,-1,-1,13,15,-1,17,19,21,-1,-1,23,25,-1,27,-1,-1,29,31,-1,33,-1,35,37,39,-1,41,-1,-1,-1,-1,-1,43,-1,45,-1,47,49,51,-1,-1,-1,-1,-1,-1],"loss_changes":[2.4734708E5,1.1119531E3,3.9259273E4,0E0,1.75E0,2.256836E1,2.8589898E4,0E0,0E0,0E0,0E0,1.0793232E3,8.913203E3,0E0,2.3144531E0,4.6147344E3,9.818636E3,0E0,0E0,1.4256104E2,2.0184531E3,0E0,1.6145068E2,0E0,0E0,4.2523523E2,4.041875E2,0E0,2.6675781E1,0E0,1.356886E2,5.709639E1,3.5417188E2,0E0,9.68457E0,0E0,0E0,0E0,0E0,0E0,3.2484375E2,0E0,4.1713867E0,0E0,2.9675E2,4.3410587E0,6.591797E-1,0E0,0E0,0E0,0E0,0E0,0E0],"parents":[2147483647,0,0,1,1,2,2,4,4,5,5,6,6,11,11,12,12,14,14,15,15,16,16,19,19,20,20,22,22,25,25,26,26,28,28,30,30,31,31,32,32,34,34,40,40,42,42,44,44,45,45,46,46],"right_children":[2,4,6,-1,8,10,12,-1,-1,-1,-1,14,16,-1,18,20,22,-1,-1,24,26,-1,28,-1,-1,30,32,-1,34,-1,36,38,40,-1,42,-1,-1,-1,-1,-1,44,-1,46,-1,48,50,52,-1,-1,-1,-1,-1,-1],"split_conditions":[2.00001E0,2.00001E0,2.00001E0,4.0136904E-1,2.00001E0,2.00001E0,2.00001E0,-3.971293E-2,-4.0344712E-1,3.2451412E-1,-4.0340587E-1,2.00001E0,2.00001E0,4.0137163E-1,2.00001E0,2.00001E0,2.00001E0,-3.5767917E-2,-4.0338346E-1,2.00001E0,2.00001E0,4.033399E-1,2.00001E0,3.8829878E-1,-4.0297225E-1,2.00001E0,2.00001E0,3.897665E-1,2.00001E0,3.9737904E-1,2.00001E0,2.00001E0,2.00001E0,3.3442315E-1,2.00001E0,-4.022147E-1,-1.1078324E0,4.903131E-1,-5.791307E-1,-4.8234725E-1,2.00001E0,2.610356E-1,2.00001E0,-1.079176E0,2.00001E0,2.00001E0,2.00001E0,-4.0263525E-1,4.0129006E-1,2.839022E-1,-2.76292E-1,-7.095206E-2,-4.0330344E-1],"split_indices":[12,42,98,0,1,5,197,0,0,0,0,42,1,0,91,389,42,0,0,42,665,0,82,0,0,32,1729,0,80,0,763,5,1096,0,48,0,0,0,0,0,2984,0,49,0,1692,6,34,0,0,0,0,0,0],"split_type":[0,0,0,0,0,0,0,0,0,0,0,0,0,0,0,0,0,0,0,0,0,0,0,0,0,0,0,0,0,0,0,0,0,0,0,0,0,0,0,0,0,0,0,0,0,0,0,0,0,0,0,0,0],"sum_hessian":[1.9149645E5,8.015973E4,1.11336734E5,1.540547E2,8.000567E4,6.914279E3,1.0442245E5,1.4128687E0,8.000426E4,3.1422796E0,6.9111367E3,4.8323076E3,9.959015E4,1.5424539E2,4.6780625E3,9.404225E4,5.5478984E3,1.7457423E0,4.6763164E3,6.9343005E2,9.334882E4,2.7451064E3,2.802792E3,2.0378973E1,6.730511E2,3.515668E2,9.299725E4,2.2668674E1,2.7801233E3,6.0765068E1,2.9080176E2,4.6835026E1,9.295042E4,3.7266467E0,2.7763967E3,2.64237E2,2.6564743E1,4.249625E0,4.25854E1,4.00967E1,9.291032E4,1.3471289E0,2.7750496E3,1.2420532E1,9.28979E4,3.0795336E0,2.77197E3,4.0591454E1,9.285731E4,1.2145071E0,1.8650265E0,1.0102398E0,2.7709597E3],"tree_param":{"num_deleted":"0","num_feature":"4096","num_nodes":"53","size_leaf_vector":"1"}},{"base_weights":[-3.6062524E-4,-1.2255678E0,8.797443E-1,3.6662486E-1,-1.2303094E0,-1.22893E0,1.0190511E0,-1.3777439E-2,-1.2303338E0,2.863277E-1,-3.6905146E-1,-1.1508875E0,1.1241075E0,-1.1491238E-1,-3.6910295E-1,3.666279E-1,-1.2295794E0,1.1902353E0,6.084828E-4,-2.8990673E-2,-3.690247E-1,-1.1549631E0,1.2076397E0,3.689696E-1,-1.2026873E0,3.5150594E-1,-3.685339E-1,-3.6825484E-1,1.214976E0,3.531678E-1,-1.2228569E0,-2.0739209E-2,1.2193581E0,5.1990145E-1,-1.2275805E0,3.6734563E-1,-2.11106E0,-1.4024725E0,1.2200036E0,3.3390746E-1,-2.4491976E-1,2.4601753E-1,-1.2290181E0,-4.203618E0,-1.7917747E0,-1.366226E0,1.2214547E0,-7.223076E-2,-3.688774E-1,-4.1853067E-1,-1.432097E0,-9.675195E-1,-5.0346947E-1,3.3110207E-1,-4.5364067E-1,-1.3485402E0,3.665818E-1],"categories":[],"categories_nodes":[],"categories_segments":[],"categories_sizes":[],"default_left":[0,0,0,0,0,0,0,0,0,0,0,0,0,0,0,0,0,0,0,0,0,0,0,0,0,0,0,0,0,0,0,0,0,0,0,0,0,0,0,0,0,0,0,0,0,0,0,0,0,0,0,0,0,0,0,0,0],"id":3,"left_children":[1,3,5,-1,7,9,11,-1,13,-1,-1,15,17,-1,-1,-1,19,21,23,-1,-1,25,27,-1,29,-1,-1,-1,31,-1,33,35,37,39,41,-1,43,-1,45,-1,-1,-1,47,49,51,53,55,-1,-1,-1,-1,-1,-1,-1,-1,-1,-1],"loss_changes":[1.650282E5,7.440156E2,2.6164336E4,0E0,1.796875E0,1.6136719E1,1.9046984E4,0E0,2.34375E-2,0E0,0E0,7.2202734E2,5.9204297E3,0E0,0E0,0E0,2.008789E0,3.0732266E3,6.5553047E3,0E0,0E0,9.631311E1,1.3360938E3,0E0,1.0894043E2,0E0,0E0,0E0,4.0334375E2,0E0,1.8922852E1,6.902103E2,2.881172E2,6.2242103E0,7.5300293E0,0E0,5.8604645E1,0E0,2.8017188E2,0E0,0E0,0E0,9.5825195E-1,1.3130447E1,8.8480835E0,1.6836395E1,2.1099219E2,0E0,0E0,0E0,0E0,0E0,0E0,0E0,0E0,0E0,0E0],"parents":[2147483647,0,0,1,1,2,2,4,4,5,5,6,6,8,8,11,11,12,12,16,16,17,17,18,18,21,21,22,22,24,24,28,28,30,30,31,31,32,32,33,33,34,34,36,36,38,38,42,42,43,43,44,44,45,45,46,46],"right_children":[2,4,6,-1,8,10,12,-1,14,-1,-1,16,18,-1,-1,-1,20,22,24,-1,-1,26,28,-1,30,-1,-1,-1,32,-1,34,36,38,40,42,-1,44,-1,46,-1,-1,-1,48,50,52,54,56,-1,-1,-1,-1,-1,-1,-1,-1,-1,-1],"split_conditions":[2.00001E0,2.00001E0,2.00001E0,3.6662486E-1,2.00001E0,2.00001E0,2.00001E0,-1.3777439E-2,2.00001E0,2.863277E-1,-3.6905146E-1,2.00001E0,2.00001E0,-1.1491238E-1,-3.6910295E-1,3.666279E-1,2.00001E0,2.00001E0,2.00001E0,-2.8990673E-2,-3.690247E-1,2.00001E0,2.00001E0,3.689696E-1,2.00001E0,3.5150594E-1,-3.685339E-1,-3.6825484E-1,2.00001E0,3.531678E-1,2.00001E0,2.00001E0,2.00001E0,2.00001E0,2.00001E0,3.6734563E-1,2.00001E0,-1.4024725E0,2.00001E0,3.3390746E-1,-2.4491976E-1,2.4601753E-1,2.00001E0,2.00001E0,2.00001E0,2.00001E0,2.00001E0,-7.223076E-2,-3.688774E-1,-4.1853067E-1,-1.432097E0,-9.675195E-1,-5.0346947E-1,3.3110207E-1,-4.5364067E-1,-1.3485402E0,3.665818E-1],"split_indices":[12,42,98,0,91,5,197,0,1,0,0,42,1,0,0,0,91,389,42,0,0,42,763,0,82,0,0,0,808,0,49,5,3406,6,46,0,71,0,1617,0,0,0,91,665,28,5,1512,0,0,0,0,0,0,0,0,0,0],"split_type":[0,0,0,0,0,0,0,0,0,0,0,0,0,0,0,0,0,0,0,0,0,0,0,0,0,0,0,0,0,0,0,0,0,0,0,0,0,0,0,0,0,0,0,0,0,0,0,0,0,0,0,0,0,0,0,0,0],"sum_hessian":[1.5304125E5,6.397722E4,8.906403E4,1.2319823E2,6.385402E4,5.51879E3,8.354524E4,1.3583454E0,6.385266E4,2.700002E0,5.51609E3,3.8575522E3,7.968769E4,1.1536053E0,6.3851508E4,1.2335046E2,3.7342017E3,7.525803E4,4.4296567E3,1.7421097E0,3.7324595E3,5.539161E2,7.470412E4,2.19115E3,2.2385066E3,1.650129E1,5.3741473E2,2.2388235E2,7.4480234E4,1.832971E1,2.220177E3,2.6317477E2,7.421706E4,5.7065325E0,2.2144705E3,1.6518604E2,9.798873E1,7.334777E0,7.420973E4,4.0680113E0,1.6385211E0,1.1541259E0,2.2133162E3,1.1361436E1,8.66273E1,4.1087227E1,7.416864E4,1.527317E0,2.211789E3,2.498581E0,8.862855E0,4.3472176E0,8.228008E1,1.9256978E0,3.916153E1,5.5010824E0,7.416313E4],"tree_param":{"num_deleted":"0","num_feature":"4096","num_nodes":"57","size_leaf_vector":"1"}},{"base_weights":[-5.142035E-4,-1.1547184E0,8.2609844E-1,3.4465483E-1,-1.159197E0,-1.1577504E0,9.567539E-1,-1.1428556E-2,-1.1592267E0,2.5703922E-1,-3.477068E-1,-1.0839958E0,1.0552559E0,-1.01324484E-1,-3.4777308E-1,3.4465864E-1,-1.1582913E0,1.1171399E0,7.283128E-4,3.492865E-2,-1.1588608E0,-1.0865008E0,1.1334578E0,3.4760153E-1,-1.1318017E0,-1.0273223E-1,-3.477437E-1,3.262864E-1,-3.470538E-1,-9.183168E-1,1.1417874E0,3.2825434E-1,-1.1510835E0,3.3948338E-1,-1.31675E0,-1.3100784E0,1.1435417E0,2.7248392E-1,-1.1548688E0,-3.4590733E-1,-2.075732E0,2.217818E-1,-4.2240852E-1,-1.5344054E0,1.1451439E0,2.3514058E-1,-1.1564742E0,-4.2647916E-1,-6.785268E-1,-3.07281E-1,-4.961437E-1,-3.9881536E-1,1.146868E0,7.9735145E-3,-1.1583421E0,-6.6608673E-1,3.4434333E-1,2.3257609E-1,-2.1984349E-1,-9.648412E-2,-3.476366E-1],"categories":[],"categories_nodes":[],"categories_segments":[],"categories_sizes":[],"default_left":[0,0,0,0,0,0,0,0,0,0,0,0,0,0,0,0,0,0,0,0,0,0,0,0,0,0,0,0,0,0,0,0,0,0,0,0,0,0,0,0,0,0,0,0,0,0,0,0,0,0,0,0,0,0,0,0,0,0,0,0,0],"id":4,"left_children":[1,3,5,-1,7,9,11,-1,13,-1,-1,15,17,-1,-1,-1,19,21,23,-1,25,27,29,-1,31,-1,-1,-1,-1,33,35,-1,37,-1,39,41,43,-1,45,-1,47,-1,-1,49,51,-1,53,-1,-1,-1,-1,-1,55,57,59,-1,-1,-1,-1,-1,-1],"loss_changes":[1.1391242E5,5.153594E2,1.8033809E4,0E0,1.6015625E0,1.2011719E1,1.3122027E4,0E0,2.96875E-1,0E0,0E0,4.9999316E2,4.063461E3,0E0,0E0,0E0,2.2468262E0,2.1161719E3,4.529007E3,0E0,2.7978516E-1,6.74559E1,9.9885156E2,0E0,7.6196045E1,0E0,0E0,0E0,0E0,1.9474944E2,2.5161719E2,0E0,1.4545898E1,0E0,2.2282349E1,9.479958E0,2.5105469E2,0E0,6.286865E0,0E0,9.2019653E-1,0E0,0E0,4.4843292E-1,2.4930469E2,0E0,3.7670898E0,0E0,0E0,0E0,0E0,0E0,1.8682812E2,2.7052858E0,2.7172852E-1,0E0,0E0,0E0,0E0,0E0,0E0],"parents":[2147483647,0,0,1,1,2,2,4,4,5,5,6,6,8,8,11,11,12,12,16,16,17,17,18,18,20,20,21,21,22,22,24,24,29,29,30,30,32,32,34,34,35,35,36,36,38,38,40,40,43,43,44,44,46,46,52,52,53,53,54,54],"right_children":[2,4,6,-1,8,10,12,-1,14,-1,-1,16,18,-1,-1,-1,20,22,24,-1,26,28,30,-1,32,-1,-1,-1,-1,34,36,-1,38,-1,40,42,44,-1,46,-1,48,-1,-1,50,52,-1,54,-1,-1,-1,-1,-1,56,58,60,-1,-1,-1,-1,-1,-1],"split_conditions":[2.00001E0,2.00001E0,2.00001E0,3.4465483E-1,2.00001E0,2.00001E0,2.00001E0,-1.1428556E-2,2.00001E0,2.5703922E-1,-3.477068E-1,2.00001E0,2.00001E0,-1.01324484E-1,-3.4777308E-1,3.4465864E-1,2.00001E0,2.00001E0,2.00001E0,3.492865E-2,2.00001E0,2.00001E0,2.00001E0,3.4760153E-1,2.00001E0,-1.0273223E-1,-3.477437E-1,3.262864E-1,-3.470538E-1,2.00001E0,2.00001E0,3.2825434E-1,2.00001E0,3.3948338E-1,2.00001E0,2.00001E0,2.00001E0,2.7248392E-1,2.00001E0,-3.4590733E-1,2.00001E0,2.217818E-1,-4.2240852E-1,2.00001E0,2.00001E0,2.3514058E-1,2.00001E0,-4.2647916E-1,-6.785268E-1,-3.07281E-1,-4.961437E-1,-3.9881536E-1,2.00001E0,2.00001E0,2.00001E0,-6.6608673E-1,3.4434333E-1,2.3257609E-1,-2.1984349E-1,-9.648412E-2,-3.476366E-1],"split_indices":[12,42,98,0,91,5,197,0,26,0,0,42,1,0,0,0,133,389,42,0,49,42,665,0,82,0,0,0,0,32,1158,0,80,0,763,5,1096,0,371,0,808,0,0,763,1692,0,49,0,0,0,0,0,2984,6,91,0,0,0,0,0,0],"split_type":[0,0,0,0,0,0,0,0,0,0,0,0,0,0,0,0,0,0,0,0,0,0,0,0,0,0,0,0,0,0,0,0,0,0,0,0,0,0,0,0,0,0,0,0,0,0,0,0,0,0,0,0,0,0,0,0,0,0,0,0,0],"sum_hessian":[1.1939306E5,4.9823633E4,6.956943E4,9.6182144E1,4.972745E4,4.298217E3,6.5271215E4,1.3527939E0,4.9726098E4,2.2881308E0,4.2959287E3,3.0049556E3,6.2266258E4,1.4311719E0,4.9724664E4,9.6300644E1,2.9086548E3,5.8814707E4,3.4515513E3,1.207875E0,2.907447E3,4.3183783E2,5.838287E4,1.7066163E3,1.7449348E3,1.4336723E0,2.9060132E3,1.308123E1,4.1875662E2,2.3561725E2,5.8147254E4,1.4506217E1,1.7304286E3,3.8043636E1,1.9757362E2,4.104094E1,5.810621E4,2.7365077E0,1.7276921E3,1.6458824E2,3.298537E1,1.573434E0,3.9467503E1,3.4170746E1,5.8072043E4,1.0264033E0,1.7266658E3,9.216938E0,2.376843E1,8.297934E0,2.5872812E1,3.9898346E1,5.8032145E4,2.7600455E0,1.7239056E3,1.5589855E1,5.8016555E4,1.3329214E0,1.4271241E0,1.3043934E0,1.7226013E3],"tree_param":{"num_deleted":"0","num_feature":"4096","num_nodes":"61","size_leaf_vector":"1"}},{"base_weights":[-8.2988443E-4,-1.1080849E0,7.891492E-1,3.2971925E-1,-1.1123961E0,-1.1108305E0,9.137923E-1,2.4310978E-2,-1.1124369E0,2.3296519E-1,-3.3365148E-1,-1.039684E0,1.00773E0,-9.156284E-2,-3.337357E-1,3.2972413E-1,-1.1111544E0,1.0665864E0,9.214859E-4,1.4629268E-2,-3.336151E-1,-1.0405229E0,1.0821465E0,3.335139E-1,-1.0845754E0,3.0702877E-1,-3.328063E-1,-8.424988E-1,1.0902095E0,3.09385E-1,-1.1034173E0,3.2346886E-1,-1.2048467E0,-1.7926525E-1,1.0953234E0,2.4715307E-1,-1.1073629E0,-3.3134985E-1,-4.6890292E-1,3.3080378E-1,-1.7484685E0,-1.3461088E0,1.0974983E0,2.4321003E-1,-1.1099735E0,-3.4636036E-1,-1.942252E0,2.4356502E-1,-4.3568876E-1,-2.0675406E0,1.0980808E0,2.8122103E-1,-1.9929455E-1,4.059667E-2,-1.111421E0,-4.2903405E-1,-8.063753E-1,-2.0675406E0,3.2959902E-1,-8.826371E-2,-3.3355117E-1],"categories":[],"categories_nodes":[],"categories_segments":[],"categories_sizes":[],"default_left":[0,0,0,0,0,0,0,0,0,0,0,0,0,0,0,0,0,0,0,0,0,0,0,0,0,0,0,0,0,0,0,0,0,0,0,0,0,0,0,0,0,0,0,0,0,0,0,0,0,0,0,0,0,0,0,0,0,0,0,0,0],"id":5,"left_children":[1,3,5,-1,7,9,11,-1,13,-1,-1,15,17,-1,-1,-1,19,21,23,-1,-1,25,27,-1,29,-1,-1,31,33,-1,35,-1,37,39,41,-1,43,-1,-1,-1,45,47,49,51,53,-1,55,-1,-1,-1,57,-1,-1,-1,59,-1,-1,-1,-1,-1,-1],"loss_changes":[8.027269E4,3.6483984E2,1.2684785E4,0E0,1.9453125E0,9.210449E0,9.224406E3,0E0,1.2890625E-1,0E0,0E0,3.5380054E2,2.8417578E3,0E0,0E0,0E0,2.3742676E0,1.4866406E3,3.1960178E3,0E0,0E0,4.8391357E1,6.988672E2,0E0,5.458252E1,0E0,0E0,1.3227985E2,2.9097656E2,0E0,1.1019897E1,0E0,3.9810944E0,3.651623E2,2.3833594E2,0E0,4.9486084E0,0E0,0E0,0E0,7.146332E0,1.037989E1,2.1499219E2,2.7522721E0,2.5375977E0,0E0,1.9084534E1,0E0,0E0,0E0,2.1501562E2,0E0,0E0,0E0,1.23046875E-1,0E0,0E0,0E0,0E0,0E0,0E0],"parents":[2147483647,0,0,1,1,2,2,4,4,5,5,6,6,8,8,11,11,12,12,16,16,17,17,18,18,21,21,22,22,24,24,27,27,28,28,30,30,32,32,33,33,34,34,36,36,40,40,41,41,42,42,43,43,44,44,46,46,50,50,54,54],"right_children":[2,4,6,-1,8,10,12,-1,14,-1,-1,16,18,-1,-1,-1,20,22,24,-1,-1,26,28,-1,30,-1,-1,32,34,-1,36,-1,38,40,42,-1,44,-1,-1,-1,46,48,50,52,54,-1,56,-1,-1,-1,58,-1,-1,-1,60,-1,-1,-1,-1,-1,-1],"split_conditions":[2.00001E0,2.00001E0,2.00001E0,3.2971925E-1,2.00001E0,2.00001E0,2.00001E0,2.4310978E-2,2.00001E0,2.3296519E-1,-3.3365148E-1,2.00001E0,2.00001E0,-9.156284E-2,-3.337357E-1,3.2972413E-1,2.00001E0,2.00001E0,2.00001E0,1.4629268E-2,-3.336151E-1,2.00001E0,2.00001E0,3.335139E-1,2.00001E0,3.0702877E-1,-3.328063E-1,2.00001E0,2.00001E0,3.09385E-1,2.00001E0,3.2346886E-1,2.00001E0,2.00001E0,2.00001E0,2.4715307E-1,2.00001E0,-3.3134985E-1,-4.6890292E-1,3.3080378E-1,2.00001E0,2.00001E0,2.00001E0,2.00001E0,2.00001E0,-3.4636036E-1,2.00001E0,2.4356502E-1,-4.3568876E-1,-2.0675406E0,2.00001E0,2.8122103E-1,-1.9929455E-1,4.059667E-2,2.00001E0,-4.2903405E-1,-8.063753E-1,-2.0675406E0,3.2959902E-1,-8.826371E-2,-3.3355117E-1],"split_indices":[12,42,98,0,1,5,197,0,91,0,0,42,1,0,0,0,91,389,42,0,0,42,665,0,82,0,0,32,808,0,80,0,763,5,1617,0,91,0,0,0,14,5,753,71,406,0,1729,0,0,0,1606,0,0,0,417,0,0,0,0,0,0],"split_type":[0,0,0,0,0,0,0,0,0,0,0,0,0,0,0,0,0,0,0,0,0,0,0,0,0,0,0,0,0,0,0,0,0,0,0,0,0,0,0,0,0,0,0,0,0,0,0,0,0,0,0,0,0,0,0,0,0,0,0,0,0],"sum_hessian":[9.1768805E4,3.8210953E4,5.355785E4,7.3997604E1,3.8136953E4,3.2967273E3,5.0261125E4,1.2348195E0,3.813572E4,1.9303541E0,3.294797E3,2.305577E3,4.7955547E4,1.1026845E0,3.8134617E4,7.408845E1,2.2314885E3,4.5306926E4,2.6486235E3,1.6809671E0,2.2298074E3,3.3163763E2,4.4975285E4,1.3090479E3,1.3395758E3,1.02553625E1,3.2138226E2,1.8719829E2,4.478809E4,1.1349475E1,1.3282263E3,2.939676E1,1.5780153E2,1.79567E2,4.4608523E4,2.289126E0,1.3259373E3,1.26455864E2,3.1345661E1,9.8993E1,8.0574005E1,3.915176E1,4.456937E4,2.3802345E0,1.323557E3,2.1533388E1,5.9040623E1,1.5244871E0,3.7627274E1,2.386822E0,4.4566984E4,1.3299744E0,1.0502601E0,1.4292047E0,1.3221278E3,3.673095E1,2.2309671E1,2.386822E0,4.4564598E4,1.0332962E0,1.3210945E3],"tree_param":{"num_deleted":"0","num_feature":"4096","num_nodes":"61","size_leaf_vector":"1"}},{"base_weights":[-1.0964534E-3,-1.0762496E0,7.621289E-1,3.1892228E-1,-1.080454E0,-1.0787123E0,8.8226825E-1,2.0161796E-2,-1.0805057E0,2.1229075E-1,-3.2404768E-1,-1.009204E0,9.7276574E-1,-7.874125E-2,-3.2415807E-1,3.1892857E-1,-1.0788488E0,1.0292805E0,1.1197581E-3,6.1408896E-2,-1.0797766E0,-1.0079846E0,1.0442694E0,3.2386613E-1,-1.0514584E0,-5.3196404E-2,-3.2407624E-1,2.9084548E-1,-3.2293916E-1,-7.96353E-1,1.0521147E0,2.9365137E-1,-1.0701731E0,3.1114042E-1,-1.1384917E0,-2.067263E0,1.0530477E0,4.1504022E-1,-1.0757502E0,-3.2105273E-1,-4.0141848E-1,-3.9182594E-1,1.055748E0,-6.1692253E-2,2.3628552E-1,1.2756835E-1,-1.0776812E0,-4.3523422E-1,1.058231E0,-4.178644E-2,-3.2362282E-1,-4.3042492E-2,3.1901717E-1],"categories":[],"categories_nodes":[],"categories_segments":[],"categories_sizes":[],"default_left":[0,0,0,0,0,0,0,0,0,0,0,0,0,0,0,0,0,0,0,0,0,0,0,0,0,0,0,0,0,0,0,0,0,0,0,0,0,0,0,0,0,0,0,0,0,0,0,0,0,0,0,0,0],"id":6,"left_children":[1,3,5,-1,7,9,11,-1,13,-1,-1,15,17,-1,-1,-1,19,21,23,-1,25,27,29,-1,31,-1,-1,-1,-1,33,35,-1,37,-1,39,-1,41,43,45,-1,-1,-1,47,-1,-1,-1,49,-1,51,-1,-1,-1,-1],"loss_changes":[5.7340895E4,2.6208984E2,9.039078E3,0E0,1.7929688E0,7.2351074E0,6.56792E3,0E0,2.1484375E-1,0E0,0E0,2.5403516E2,2.0105E3,0E0,0E0,0E0,2.2402344E0,1.0576289E3,2.286732E3,0E0,5.386963E-1,3.5333435E1,4.9683203E2,0E0,3.9783936E1,0E0,0E0,0E0,0E0,9.298672E1,2.6070703E2,0E0,8.817749E0,0E0,2.56073E-1,0E0,2.1925E2,1.2031615E0,3.3771973E0,0E0,0E0,0E0,2.1414453E2,0E0,0E0,0E0,8.519287E-1,0E0,2.117539E2,0E0,0E0,0E0,0E0],"parents":[2147483647,0,0,1,1,2,2,4,4,5,5,6,6,8,8,11,11,12,12,16,16,17,17,18,18,20,20,21,21,22,22,24,24,29,29,30,30,32,32,34,34,36,36,37,37,38,38,42,42,46,46,48,48],"right_children":[2,4,6,-1,8,10,12,-1,14,-1,-1,16,18,-1,-1,-1,20,22,24,-1,26,28,30,-1,32,-1,-1,-1,-1,34,36,-1,38,-1,40,-1,42,44,46,-1,-1,-1,48,-1,-1,-1,50,-1,52,-1,-1,-1,-1],"split_conditions":[2.00001E0,2.00001E0,2.00001E0,3.1892228E-1,2.00001E0,2.00001E0,2.00001E0,2.0161796E-2,2.00001E0,2.1229075E-1,-3.2404768E-1,2.00001E0,2.00001E0,-7.874125E-2,-3.2415807E-1,3.1892857E-1,2.00001E0,2.00001E0,2.00001E0,6.1408896E-2,2.00001E0,2.00001E0,2.00001E0,3.2386613E-1,2.00001E0,-5.3196404E-2,-3.2407624E-1,2.9084548E-1,-3.2293916E-1,2.00001E0,2.00001E0,2.9365137E-1,2.00001E0,3.1114042E-1,2.00001E0,-2.067263E0,2.00001E0,2.00001E0,2.00001E0,-3.2105273E-1,-4.0141848E-1,-3.9182594E-1,2.00001E0,-6.1692253E-2,2.3628552E-1,1.2756835E-1,2.00001E0,-4.3523422E-1,2.00001E0,-4.178644E-2,-3.2362282E-1,-4.3042492E-2,3.1901717E-1],"split_indices":[12,42,98,0,1,5,197,0,91,0,0,42,1,0,0,0,133,389,42,0,49,42,665,0,82,0,0,0,0,32,3252,0,49,0,763,0,1692,90,68,0,0,0,1096,0,0,0,91,0,808,0,0,0,0],"split_type":[0,0,0,0,0,0,0,0,0,0,0,0,0,0,0,0,0,0,0,0,0,0,0,0,0,0,0,0,0,0,0,0,0,0,0,0,0,0,0,0,0,0,0,0,0,0,0,0,0,0,0,0,0],"sum_hessian":[6.987615E4,2.9009768E4,4.086638E4,5.640752E1,2.8953361E4,2.5031873E3,3.836319E4,1.2460186E0,2.8952115E4,1.6303712E0,2.501557E3,1.7512151E3,3.6611977E4,1.06661E0,2.8951049E4,5.6476524E1,1.6947385E3,3.4599477E4,2.0125004E3,1.0654738E0,1.6936731E3,2.5221898E2,3.4347258E4,9.9402856E2,1.01847174E3,1.0925406E0,1.6925806E3,8.00155E0,2.4421744E2,1.4534927E2,3.4201906E4,8.833694E0,1.00963806E3,2.2538162E1,1.22811104E2,3.149349E0,3.4198758E4,3.5024216E0,1.0061356E3,9.623179E1,2.6579311E1,3.854913E1,3.416021E4,1.4818519E0,2.0205696E0,1.0109851E0,1.00512463E3,3.3228024E1,3.412698E4,1.2852453E0,1.0038394E3,1.4578294E2,3.39812E4],"tree_param":{"num_deleted":"0","num_feature":"4096","num_nodes":"53","size_leaf_vector":"1"}},{"base_weights":[-1.428253E-3,-1.0539756E0,7.4063104E-1,3.106004E-1,-1.0581148E0,-1.0561324E0,8.5706556E-1,1.6725853E-2,-1.0581814E0,1.9408096E-1,-3.173171E-1,-9.8742217E-1,9.4471586E-1,-6.782099E-2,-3.1746313E-1,3.1060857E-1,-1.0559039E0,9.9921536E-1,1.4187255E-3,4.3896962E-2,-3.1725508E-1,-3.1877354E-1,1.0132306E0,3.170762E-1,-1.0266677E0,-7.6517874E-1,1.0209099E0,2.793856E-1,-1.0454988E0,3.007982E-1,-3.2811195E-1,-2.7478352E0,1.0216774E0,2.183418E-1,-1.0505228E0,-1.3235278E0,1.0250827E0,9.629453E-2,-1.0537238E0,1.877444E-1,-4.1944346E-1,-1.045442E0,1.0268166E0,6.1350066E-2,-1.056167E0,-1.743634E-1,3.0944338E-1,-8.0818996E-2,-3.1713217E-1],"categories":[],"categories_nodes":[],"categories_segments":[],"categories_sizes":[],"default_left":[0,0,0,0,0,0,0,0,0,0,0,0,0,0,0,0,0,0,0,0,0,0,0,0,0,0,0,0,0,0,0,0,0,0,0,0,0,0,0,0,0,0,0,0,0,0,0,0,0],"id":7,"left_children":[1,3,5,-1,7,9,11,-1,13,-1,-1,15,17,-1,-1,-1,19,21,23,-1,-1,-1,25,-1,27,29,31,-1,33,-1,-1,-1,35,-1,37,39,41,-1,43,-1,-1,-1,45,-1,47,-1,-1,-1,-1],"loss_changes":[4.1316883E4,1.9025977E2,6.491615E3,0E0,1.6777344E0,5.80249E0,4.711664E3,0E0,2.890625E-1,0E0,0E0,1.8426538E2,1.4300312E3,0E0,0E0,0E0,2.6359863E0,7.609707E2,1.65088E3,0E0,0E0,0E0,3.5750977E2,0E0,2.9388977E1,6.6653854E1,2.125586E2,0E0,7.569397E0,0E0,0E0,0E0,2.0905664E2,0E0,3.6837769E0,6.423378E0,2.0666016E2,0E0,2.553833E0,0E0,0E0,0E0,1.9518945E2,0E0,2.7685547E-1,0E0,0E0,0E0,0E0],"parents":[2147483647,0,0,1,1,2,2,4,4,5,5,6,6,8,8,11,11,12,12,16,16,17,17,18,18,22,22,24,24,25,25,26,26,28,28,32,32,34,34,35,35,36,36,38,38,42,42,44,44],"right_children":[2,4,6,-1,8,10,12,-1,14,-1,-1,16,18,-1,-1,-1,20,22,24,-1,-1,-1,26,-1,28,30,32,-1,34,-1,-1,-1,36,-1,38,40,42,-1,44,-1,-1,-1,46,-1,48,-1,-1,-1,-1],"split_conditions":[2.00001E0,2.00001E0,2.00001E0,3.106004E-1,2.00001E0,2.00001E0,2.00001E0,1.6725853E-2,2.00001E0,1.9408096E-1,-3.173171E-1,2.00001E0,2.00001E0,-6.782099E-2,-3.1746313E-1,3.1060857E-1,2.00001E0,2.00001E0,2.00001E0,4.3896962E-2,-3.1725508E-1,-3.1877354E-1,2.00001E0,3.170762E-1,2.00001E0,2.00001E0,2.00001E0,2.793856E-1,2.00001E0,3.007982E-1,-3.2811195E-1,-2.7478352E0,2.00001E0,2.183418E-1,2.00001E0,2.00001E0,2.00001E0,9.629453E-2,2.00001E0,1.877444E-1,-4.1944346E-1,-1.045442E0,2.00001E0,6.1350066E-2,2.00001E0,-1.743634E-1,3.0944338E-1,-8.0818996E-2,-3.1713217E-1],"split_indices":[12,42,98,0,1,5,197,0,91,0,0,42,1,0,0,0,91,400,42,0,0,0,665,0,82,32,3106,0,80,0,0,0,1617,0,53,5,3406,0,91,0,0,0,750,0,100,0,0,0,0],"split_type":[0,0,0,0,0,0,0,0,0,0,0,0,0,0,0,0,0,0,0,0,0,0,0,0,0,0,0,0,0,0,0,0,0,0,0,0,0,0,0,0,0,0,0,0,0,0,0,0,0],"sum_hessian":[5.2896984E4,2.187242E4,3.1024564E4,4.2754116E1,2.1829664E4,1.887619E3,2.9136945E4,1.2551601E0,2.182841E4,1.38342E0,1.8862356E3,1.3213151E3,2.7815629E4,1.033567E0,2.1827377E4,4.2806183E1,1.2785089E3,2.6296287E4,1.5193418E3,1.5928035E0,1.276916E3,1.7703864E2,2.611925E4,7.496615E2,7.6968036E2,1.1187709E2,2.6007373E4,6.8704953E0,7.628099E2,1.7211012E1,9.4666084E1,1.0608232E0,2.600631E4,1.7485725E0,7.610613E2,3.714538E1,2.5969166E4,1.5409546E0,7.595203E2,1.0970966E0,3.6048283E1,9.2086525E0,2.5959957E4,1.3116515E0,7.582087E2,7.467592E1,2.5885281E4,1.2482907E0,7.569604E2],"tree_param":{"num_deleted":"0","num_feature":"4096","num_nodes":"49","size_leaf_vector":"1"}},{"base_weights":[-2.0550878E-3,-1.0381165E0,7.2081137E-1,3.0369338E-1,-1.0422217E0,-1.0399201E0,8.336868E-1,2.1569744E-2,-1.0423111E0,1.7783564E-1,-3.125103E-1,-9.715097E-1,9.1856384E-1,-9.4023734E-2,-3.1270903E-1,3.0370402E-1,-1.0393326E0,9.7097206E-1,1.7750491E-3,3.5544842E-2,-3.124194E-1,-9.678492E-1,9.851304E-1,3.121894E-1,-1.0077441E0,2.60046E-1,-3.1076118E-1,-3.1908122E-1,9.917668E-1,7.3551714E-1,-1.0295504E0,-3.9049375E-1,1.001307E0,1.4523837E-2,2.7012423E-1,1.9864187E-1,-1.0352345E0,3.136271E-1,-1.5365314E0,-6.568985E0,1.0028796E0,6.713486E-2,-1.038882E0,-3.136337E-1,-1.633741E0,-3.9716E0,2.0753138E-1,-2.5625033E0,1.0039977E0,-4.118797E-2,-3.1214118E-1,-4.0775397E-1,-5.789279E-1,-9.3975276E-1,3.0195808E-1],"categories":[],"categories_nodes":[],"categories_segments":[],"categories_sizes":[],"default_left":[0,0,0,0,0,0,0,0,0,0,0,0,0,0,0,0,0,0,0,0,0,0,0,0,0,0,0,0,0,0,0,0,0,0,0,0,0,0,0,0,0,0,0,0,0,0,0,0,0,0,0,0,0,0,0],"id":8,"left_children":[1,3,5,-1,7,9,11,-1,13,-1,-1,15,17,-1,-1,-1,19,21,23,-1,-1,25,27,-1,29,-1,-1,-1,31,33,35,37,39,-1,-1,-1,41,-1,43,45,47,-1,49,-1,51,-1,-1,-1,53,-1,-1,-1,-1,-1,-1],"loss_changes":[2.9909541E4,1.3920508E2,4.6760254E3,0E0,1.7070312E0,4.739258E0,3.3881133E3,0E0,2.96875E-1,0E0,0E0,1.3469336E2,1.01450195E3,0E0,0E0,0E0,2.4211426E0,5.4922266E2,1.19951E3,0E0,0E0,1.9031021E1,2.7064844E2,0E0,2.2808044E1,0E0,0E0,0E0,2.6103516E2,8.3445835E-1,6.1983643E0,2.2574225E2,2.4027734E2,0E0,0E0,0E0,2.8583374E0,0E0,1.9273682E0,2.1299928E2,2.1802344E2,0E0,6.7401123E-1,0E0,2.3992004E0,0E0,0E0,0E0,2.0848047E2,0E0,0E0,0E0,0E0,0E0,0E0],"parents":[2147483647,0,0,1,1,2,2,4,4,5,5,6,6,8,8,11,11,12,12,16,16,17,17,18,18,21,21,22,22,24,24,28,28,29,29,30,30,31,31,32,32,36,36,38,38,39,39,40,40,42,42,44,44,48,48],"right_children":[2,4,6,-1,8,10,12,-1,14,-1,-1,16,18,-1,-1,-1,20,22,24,-1,-1,26,28,-1,30,-1,-1,-1,32,34,36,38,40,-1,-1,-1,42,-1,44,46,48,-1,50,-1,52,-1,-1,-1,54,-1,-1,-1,-1,-1,-1],"split_conditions":[2.00001E0,2.00001E0,2.00001E0,3.0369338E-1,2.00001E0,2.00001E0,2.00001E0,2.1569744E-2,2.00001E0,1.7783564E-1,-3.125103E-1,2.00001E0,2.00001E0,-9.4023734E-2,-3.1270903E-1,3.0370402E-1,2.00001E0,2.00001E0,2.00001E0,3.5544842E-2,-3.124194E-1,2.00001E0,2.00001E0,3.121894E-1,2.00001E0,2.60046E-1,-3.1076118E-1,-3.1908122E-1,2.00001E0,2.00001E0,2.00001E0,2.00001E0,2.00001E0,1.4523837E-2,2.7012423E-1,1.9864187E-1,2.00001E0,3.136271E-1,2.00001E0,2.00001E0,2.00001E0,6.713486E-2,2.00001E0,-3.136337E-1,2.00001E0,-3.9716E0,2.0753138E-1,-2.5625033E0,2.00001E0,-4.118797E-2,-3.1214118E-1,-4.0775397E-1,-5.789279E-1,-9.3975276E-1,3.0195808E-1],"split_indices":[12,42,98,0,91,5,197,0,29,0,0,42,1,0,0,0,91,389,42,0,0,42,763,0,49,0,0,0,808,208,80,5,1943,0,0,0,53,0,14,652,1880,0,122,0,1729,0,0,0,757,0,0,0,0,0,0],"split_type":[0,0,0,0,0,0,0,0,0,0,0,0,0,0,0,0,0,0,0,0,0,0,0,0,0,0,0,0,0,0,0,0,0,0,0,0,0,0,0,0,0,0,0,0,0,0,0,0,0,0,0,0,0,0,0],"sum_hessian":[3.993415E4,1.6411555E4,2.3522592E4,3.230121E1,1.6379254E4,1.4166243E3,2.2105969E4,1.2511059E0,1.6378003E4,1.1818475E0,1.4154424E3,9.92237E2,2.111373E4,1.6044599E0,1.6376398E4,3.2340313E1,9.5989667E2,1.9971975E4,1.1417573E3,1.6089053E0,9.582878E2,1.4430107E2,1.9827674E4,5.626873E2,5.7907007E2,4.738954E0,1.3956212E2,6.3504955E1,1.9764168E4,6.7496834E0,5.723204E2,1.3520189E2,1.9628967E4,1.5567015E0,5.1929817E0,1.5298004E0,5.707905E2,6.0050262E1,7.5151634E1,3.2092514E0,1.9625758E4,1.4745528E0,5.69316E2,1.4360334E1,6.0791298E1,1.243585E0,1.9656665E0,1.4040475E0,1.9624354E4,1.1550903E0,5.681609E2,3.4439613E1,2.6351683E1,1.1235665E1,1.9613117E4],"tree_param":{"num_deleted":"0","num_feature":"4096","num_nodes":"55","size_leaf_vector":"1"}},{"base_weights":[-2.4692486E-3,-1.0266669E0,7.027373E-1,2.9746056E-1,-1.0307636E0,-1.0280503E0,8.1218684E-1,4.8532564E-2,-1.0308878E0,1.6326725E-1,-3.0902225E-1,-9.5942116E-1,8.9437574E-1,-5.6732114E-2,-3.092889E-1,2.9747415E-1,-1.0269789E0,9.447094E-1,2.231469E-3,2.8809255E-2,-3.0889472E-1,-3.1033388E-1,9.5786536E-1,3.0859366E-1,-9.917165E-1,-4.1562623E-1,9.6462196E-1,2.5490513E-1,-1.012577E0,-1.5948058E0,9.6702856E-1,2.1322858E-1,-1.0190506E0,-9.5861346E-1,9.747369E-1,6.447961E-2,-1.0251436E0,2.971269E-1,-2.2300112E0,-7.9902655E-1,9.829354E-1,-3.5943564E-3,-3.085502E-1,-4.6347025E-1,-2.199798E0,2.8009686E-1,-3.2550204E-1,-6.096366E-1,2.9619938E-1],"categories":[],"categories_nodes":[],"categories_segments":[],"categories_sizes":[],"default_left":[0,0,0,0,0,0,0,0,0,0,0,0,0,0,0,0,0,0,0,0,0,0,0,0,0,0,0,0,0,0,0,0,0,0,0,0,0,0,0,0,0,0,0,0,0,0,0,0,0],"id":9,"left_children":[1,3,5,-1,7,9,11,-1,13,-1,-1,15,17,-1,-1,-1,19,21,23,-1,-1,-1,25,-1,27,-1,29,-1,31,-1,33,-1,35,37,39,-1,41,-1,43,45,47,-1,-1,-1,-1,-1,-1,-1,-1],"loss_changes":[2.1738625E4,1.0249512E2,3.377415E3,0E0,1.9804688E0,3.9351807E0,2.4419531E3,0E0,5.800781E-1,0E0,0E0,9.905066E1,7.194746E2,0E0,0E0,0E0,2.2559204E0,3.9589355E2,8.750076E2,0E0,0E0,0E0,2.3988477E2,0E0,1.759793E1,0E0,2.3223438E2,0E0,5.536072E0,0E0,2.2387305E2,0E0,3.454132E0,1.5184656E2,2.1833496E2,0E0,1.4439697E0,0E0,1.17509E2,3.5391582E1,1.9937598E2,0E0,0E0,0E0,0E0,0E0,0E0,0E0,0E0],"parents":[2147483647,0,0,1,1,2,2,4,4,5,5,6,6,8,8,11,11,12,12,16,16,17,17,18,18,22,22,24,24,26,26,28,28,30,30,32,32,33,33,34,34,36,36,38,38,39,39,40,40],"right_children":[2,4,6,-1,8,10,12,-1,14,-1,-1,16,18,-1,-1,-1,20,22,24,-1,-1,-1,26,-1,28,-1,30,-1,32,-1,34,-1,36,38,40,-1,42,-1,44,46,48,-1,-1,-1,-1,-1,-1,-1,-1],"split_conditions":[2.00001E0,2.00001E0,2.00001E0,2.9746056E-1,2.00001E0,2.00001E0,2.00001E0,4.8532564E-2,2.00001E0,1.6326725E-1,-3.0902225E-1,2.00001E0,2.00001E0,-5.6732114E-2,-3.092889E-1,2.9747415E-1,2.00001E0,2.00001E0,2.00001E0,2.8809255E-2,-3.0889472E-1,-3.1033388E-1,2.00001E0,3.0859366E-1,2.00001E0,-4.1562623E-1,2.00001E0,2.5490513E-1,2.00001E0,-1.5948058E0,2.00001E0,2.1322858E-1,2.00001E0,2.00001E0,2.00001E0,6.447961E-2,2.00001E0,2.971269E-1,2.00001E0,2.00001E0,2.00001E0,-3.5943564E-3,-3.085502E-1,-4.6347025E-1,-2.199798E0,2.8009686E-1,-3.2550204E-1,-6.096366E-1,2.9619938E-1],"split_indices":[12,42,98,0,1,5,197,0,102,0,0,42,1,0,0,0,91,400,42,0,0,0,1692,0,82,0,2888,0,371,0,379,0,91,42,665,0,49,0,1096,32,1089,0,0,0,0,0,0,0,0],"split_type":[0,0,0,0,0,0,0,0,0,0,0,0,0,0,0,0,0,0,0,0,0,0,0,0,0,0,0,0,0,0,0,0,0,0,0,0,0,0,0,0,0,0,0,0,0,0,0,0,0],"sum_hessian":[3.009561E4,1.2272029E4,1.782358E4,2.437215E1,1.2247657E4,1.0595721E3,1.6764008E4,1.139247E0,1.2246518E4,1.0176919E0,1.0585544E3,7.427666E2,1.6021241E4,1.3176613E0,1.22452E4,2.4401352E1,7.1836523E2,1.5165561E4,8.5568066E2,1.6210693E0,7.167442E2,9.963108E1,1.506593E4,4.20948E2,4.3473267E2,4.272939E1,1.50232E4,4.4246836E0,4.3030798E2,4.9086924E0,1.5018291E4,1.2032174E0,4.2910477E2,5.9386543E1,1.4958904E4,1.9399636E0,4.271648E2,2.3532509E1,3.5854034E1,6.837974E1,1.4890525E4,1.42579E0,4.25739E2,3.275846E1,3.0955725E0,9.366387E0,5.9013355E1,2.1006788E1,1.4869519E4],"tree_param":{"num_deleted":"0","num_feature":"4096","num_nodes":"49","size_leaf_vector":"1"}},{"base_weights":[-3.432328E-3,-1.0183042E0,6.837694E-1,8.6904645E-1,-3.0679908E-1,1.0112034E0,1.1993407E-1,3.0172697E-1,-2.1017116E-1,-2.9300362E-1,1.0162437E0,7.161749E-1,-7.449129E-1,-3.2763156E-1,1.0205172E0,-9.146871E-1,8.0352813E-1,1.0176473E0,-1.2162066E0,-2.500686E-1,1.0215734E0,2.6791584E-1,-1.0070786E0,-3.282452E-1,9.1866237E-1,-7.4034035E-2,3.066938E-1,-4.998896E0,-1.1802088E0,-2.7666974E-1,1.0224253E0,6.6478257E-3,-3.0469188E-1,3.0450732E-1,-1.2054368E0,-5.216872E0,9.274783E-1,-6.3855743E0,-6.564838E-1,-5.387234E0,-1.1571722E0,-3.2824543E-1,1.022877E0,-2.1859353E0,-3.0457264E-1,-2.0540404E-1,-2.0687492E0,-7.9016227E-1,9.563863E-1,-3.756505E-1,-7.651697E0,-2.2241701E-1,-5.635086E-2,-1.0721213E1,-2.3204602E-1,-2.2057018E0,-1.1467639E0,-2.8200117E-1,1.0233471E0,-5.166733E-1,-2.738927E0,2.88761E-1,-1.8513236E0,-1.6816627E0,9.694766E-1,-1.0163333E0,-1.1244559E1,-3.863662E-1,-4.928126E0,-5.4338365E0,-1.134244E0,-1.8639222E-1,1.0237194E0,-5.1464146E-1,-1.0206348E0,-2.7407894E-1,-2.6117337E0,-2.4057387E-1,-5.838979E-1,-3.4945285E-1,9.9430054E-1,-6.713917E-1,-4.0933166E0,-3.7514755E-1,-2.1769688E0,-1.0216442E0,-1.4597727E0,1.2894884E-1,3.0715108E-1,-1.5993042E0,-2.601049E-1,2.9272395E-1,-4.2017102E-1,-2.897825E-1,3.0253917E-1,2.8128377E-1,-3.0886903E-1,-4.961281E-1,-3.0473924E-1],"categories":[],"categories_nodes":[],"categories_segments":[],"categories_sizes":[],"default_left":[0,0,0,0,0,0,0,0,0,0,0,0,0,0,0,0,0,0,0,0,0,0,0,0,0,0,0,0,0,0,0,0,0,0,0,0,0,0,0,0,0,0,0,0,0,0,0,0,0,0,0,0,0,0,0,0,0,0,0,0,0,0,0,0,0,0,0,0,0,0,0,0,0,0,0,0,0,0,0,0,0,0,0,0,0,0,0,0,0,0,0,0,0,0,0,0,0,0,0],"id":10,"left_children":[1,3,5,7,-1,9,11,-1,-1,-1,13,15,17,-1,19,21,23,25,27,-1,29,-1,31,33,35,-1,-1,37,39,-1,41,-1,-1,-1,43,45,47,49,51,53,55,-1,57,59,-1,-1,-1,61,63,-1,65,-1,-1,67,-1,-1,69,-1,71,-1,73,-1,75,77,79,-1,81,-1,-1,83,85,-1,87,-1,-1,-1,89,-1,-1,91,93,-1,-1,-1,-1,95,97,-1,-1,-1,-1,-1,-1,-1,-1,-1,-1,-1,-1],"loss_changes":[1.581445E4,7.621387E1,2.4960117E3,5.347746E0,0E0,8.669238E1,2.56246E3,0E0,0E0,0E0,7.798926E1,4.197599E2,1.6858175E3,0E0,1.7526367E1,2.5952957E1,3.6415845E2,2.779358E0,2.1204443E2,0E0,1.5035156E1,0E0,1.2840881E0,3.058962E2,1.4194482E2,0E0,0E0,8.47995E1,1.4754858E2,0E0,9.251953E0,0E0,0E0,0E0,2.7036331E1,2.4101532E1,1.2647681E2,6.2480347E1,4.7427654E-2,1.9763745E2,9.340918E1,0E0,8.8125E0,1.5958405E0,0E0,0E0,0E0,8.074487E1,8.763452E1,0E0,9.51561E1,0E0,0E0,1.835553E2,0E0,0E0,7.8531006E1,0E0,5.84375E0,0E0,6.3534546E-1,0E0,1.6714455E1,1.3876E0,8.150781E1,0E0,6.2173157E1,0E0,0E0,2.3949928E1,5.6224854E1,0E0,1.5332031E-1,0E0,0E0,0E0,6.3003876E1,0E0,0E0,6.618457E1,6.853174E1,0E0,0E0,0E0,0E0,1.9169434E1,3.297235E1,0E0,0E0,0E0,0E0,0E0,0E0,0E0,0E0,0E0,0E0,0E0,0E0],"parents":[2147483647,0,0,1,1,2,2,3,3,5,5,6,6,10,10,11,11,12,12,14,14,15,15,16,16,17,17,18,18,20,20,22,22,23,23,24,24,27,27,28,28,30,30,34,34,35,35,36,36,37,37,38,38,39,39,40,40,42,42,43,43,47,47,48,48,50,50,53,53,56,56,58,58,60,60,62,62,63,63,64,64,66,66,69,69,70,70,72,72,76,76,79,79,80,80,85,85,86,86],"right_children":[2,4,6,8,-1,10,12,-1,-1,-1,14,16,18,-1,20,22,24,26,28,-1,30,-1,32,34,36,-1,-1,38,40,-1,42,-1,-1,-1,44,46,48,50,52,54,56,-1,58,60,-1,-1,-1,62,64,-1,66,-1,-1,68,-1,-1,70,-1,72,-1,74,-1,76,78,80,-1,82,-1,-1,84,86,-1,88,-1,-1,-1,90,-1,-1,92,94,-1,-1,-1,-1,96,98,-1,-1,-1,-1,-1,-1,-1,-1,-1,-1,-1,-1],"split_conditions":[2.00001E0,2.00001E0,2.00001E0,2.00001E0,-3.0679908E-1,2.00001E0,2.00001E0,3.0172697E-1,-2.1017116E-1,-2.9300362E-1,2.00001E0,2.00001E0,2.00001E0,-3.2763156E-1,2.00001E0,2.00001E0,2.00001E0,2.00001E0,2.00001E0,-2.500686E-1,2.00001E0,2.6791584E-1,2.00001E0,2.00001E0,2.00001E0,-7.4034035E-2,3.066938E-1,2.00001E0,2.00001E0,-2.7666974E-1,2.00001E0,6.6478257E-3,-3.0469188E-1,3.0450732E-1,2.00001E0,2.00001E0,2.00001E0,2.00001E0,2.00001E0,2.00001E0,2.00001E0,-3.2824543E-1,2.00001E0,2.00001E0,-3.0457264E-1,-2.0540404E-1,-2.0687492E0,2.00001E0,2.00001E0,-3.756505E-1,2.00001E0,-2.2241701E-1,-5.635086E-2,2.00001E0,-2.3204602E-1,-2.2057018E0,2.00001E0,-2.8200117E-1,2.00001E0,-5.166733E-1,2.00001E0,2.88761E-1,2.00001E0,2.00001E0,2.00001E0,-1.0163333E0,2.00001E0,-3.863662E-1,-4.928126E0,2.00001E0,2.00001E0,-1.8639222E-1,2.00001E0,-5.1464146E-1,-1.0206348E0,-2.7407894E-1,2.00001E0,-2.4057387E-1,-5.838979E-1,2.00001E0,2.00001E0,-6.713917E-1,-4.0933166E0,-3.7514755E-1,-2.1769688E0,2.00001E0,2.00001E0,1.2894884E-1,3.0715108E-1,-1.5993042E0,-2.601049E-1,2.9272395E-1,-4.2017102E-1,-2.897825E-1,3.0253917E-1,2.8128377E-1,-3.0886903E-1,-4.961281E-1,-3.0473924E-1],"split_indices":[12,5,14,4,0,400,15,0,0,0,1158,197,42,0,844,42,208,1176,685,0,3458,0,91,32,2426,0,0,1,55,0,2507,0,0,0,1,1096,50,808,90,1,1048,0,1660,1473,0,0,0,42,757,0,753,0,0,4,0,0,11,0,211,0,1062,0,54,389,391,0,379,0,0,195,6,0,1438,0,0,0,1,0,0,42,400,0,0,0,0,5,1,0,0,0,0,0,0,0,0,0,0,0,0],"split_type":[0,0,0,0,0,0,0,0,0,0,0,0,0,0,0,0,0,0,0,0,0,0,0,0,0,0,0,0,0,0,0,0,0,0,0,0,0,0,0,0,0,0,0,0,0,0,0,0,0,0,0,0,0,0,0,0,0,0,0,0,0,0,0,0,0,0,0,0,0,0,0,0,0,0,0,0,0,0,0,0,0,0,0,0,0,0,0,0,0,0,0,0,0,0,0,0,0,0,0],"sum_hessian":[2.2673596E4,9.15413E3,1.3519466E4,2.0638046E1,9.133491E3,8.55219E3,4.9672754E3,1.931499E1,1.3230561E0,2.1141912E1,8.531048E3,2.940331E3,2.0269445E3,1.6742268E1,8.514306E3,1.4900343E2,2.7913276E3,4.2739575E2,1.5995487E3,4.3985662E0,8.509907E3,6.8237424E0,1.4217969E2,2.575687E2,2.5337588E3,1.3803697E0,4.2601538E2,1.3778901E1,1.5857698E3,3.2539732E0,8.506653E3,1.1597487E0,1.4101994E2,1.01690254E2,1.5587843E2,2.7878296E0,2.530971E3,1.0087205E1,3.6916966E0,7.367867E0,1.578402E3,1.298299E0,8.505355E3,2.3619774E1,1.3225865E2,1.1341358E0,1.6536937E0,4.145554E1,2.4895156E3,2.3892279E0,7.6979766E0,2.632739E0,1.0589577E0,2.8032544E0,4.564613E0,1.4642339E0,1.5769377E3,1.558019E0,8.503797E3,1.5085118E1,8.534656E0,1.5668739E1,2.57868E1,1.1662842E1,2.4778528E3,4.408728E0,3.2892487E0,1.5184933E0,1.2847612E0,3.330989E0,1.5736067E3,1.5474905E0,8.50225E3,4.76612E0,3.768536E0,1.2532878E1,1.3253922E1,3.6291995E0,8.033643E0,4.5533222E1,2.4323193E3,1.0986298E0,2.190619E0,1.5225759E0,1.8084129E0,1.172262E3,4.0134476E2,2.404882E0,8.499845E3,4.3768063E0,8.877116E0,2.017245E1,2.5360775E1,1.696611E1,2.4153533E3,4.246535E0,1.1680154E3,2.7741016E2,1.2393461E2],"tree_param":{"num_deleted":"0","num_feature":"4096","num_nodes":"99","size_leaf_vector":"1"}},{"base_weights":[-1.3133673E-3,-1.0121871E0,6.79051E-1,8.2422656E-1,-3.0498272E-1,1.0039775E0,1.2727806E-1,2.913031E-1,-1.9081171E-1,-2.8712162E-1,1.0090481E0,9.2219585E-1,-4.8925263E-1,-3.0682978E-1,1.0134267E0,-9.354447E-1,9.758275E-1,3.030244E-1,-1.1722453E0,-2.3691382E-1,1.0145348E0,1.8732625E-1,-3.0133438E-1,-7.515161E-1,9.8511624E-1,-1.0334177E0,-1.4785429E0,-2.5265807E-1,1.0154539E0,6.02393E-1,-1.1866186E0,-2.9691482E-1,9.9139196E-1,-6.9659305E-1,-1.0281051E0,-1.7232506E0,-3.0325514E-1,-2.644096E-1,1.0160793E0,2.5576195E-1,-1.2547657E-1,-7.839061E-1,9.9516004E-1,-5.357667E-1,-1.0243138E0,-2.9731235E-1,-1.8264939E0,-2.599631E-1,1.016649E0,2.0004986E-1,-7.4594E-1,-7.4342616E-2,1.0006751E0,-4.983946E-1,-3.0625853E-1,-3.0309263E-1,-1.913995E0,-1.7243393E-1,1.0170649E0,2.593724E-1,-3.60569E-1,3.1343412E-1,1.0059127E0,-3.98206E-1,-2.0454464E0,8.984808E-2,3.0516678E-1,2.775862E-1,-5.461061E-1,-1.3281055E-1,3.02193E-1,-3.3537924E-1,-6.538137E-1],"categories":[],"categories_nodes":[],"categories_segments":[],"categories_sizes":[],"default_left":[0,0,0,0,0,0,0,0,0,0,0,0,0,0,0,0,0,0,0,0,0,0,0,0,0,0,0,0,0,0,0,0,0,0,0,0,0,0,0,0,0,0,0,0,0,0,0,0,0,0,0,0,0,0,0,0,0,0,0,0,0,0,0,0,0,0,0,0,0,0,0,0,0],"id":11,"left_children":[1,3,5,7,-1,9,11,-1,-1,-1,13,15,17,-1,19,21,23,-1,25,-1,27,-1,-1,29,31,33,35,-1,37,39,-1,-1,41,-1,43,45,-1,-1,47,-1,-1,49,51,-1,53,-1,55,-1,57,-1,-1,59,61,-1,-1,-1,63,-1,65,-1,-1,67,69,-1,71,-1,-1,-1,-1,-1,-1,-1,-1],"loss_changes":[1.1654734E4,5.6196777E1,1.815813E3,4.2460117E0,0E0,6.435254E1,1.8407994E3,0E0,0E0,0E0,5.7606445E1,1.6436389E2,2.1675352E3,0E0,1.3480957E1,5.637348E0,2.6332764E1,0E0,6.0295044E1,0E0,1.1677246E1,0E0,0E0,4.1850883E1,2.064917E1,4.484131E0,4.9888306E1,0E0,8.416016E0,2.211103E0,0E0,0E0,1.1365601E1,0E0,1.0477295E0,2.0471313E1,0E0,0E0,7.678711E0,0E0,0E0,1.1318062E1,9.391113E0,0E0,5.003662E-1,0E0,1.6430054E1,0E0,4.777832E0,0E0,0E0,1.0603248E1,5.3411865E0,0E0,0E0,0E0,1.5107666E1,0E0,4.116211E-1,0E0,0E0,1.9099035E1,3.6018066E0,0E0,2.0789062E1,0E0,0E0,0E0,0E0,0E0,0E0,0E0,0E0],"parents":[2147483647,0,0,1,1,2,2,3,3,5,5,6,6,10,10,11,11,12,12,14,14,15,15,16,16,18,18,20,20,23,23,24,24,25,25,26,26,28,28,29,29,32,32,34,34,35,35,38,38,41,41,42,42,44,44,46,46,48,48,51,51,52,52,56,56,58,58,61,61,62,62,64,64],"right_children":[2,4,6,8,-1,10,12,-1,-1,-1,14,16,18,-1,20,22,24,-1,26,-1,28,-1,-1,30,32,34,36,-1,38,40,-1,-1,42,-1,44,46,-1,-1,48,-1,-1,50,52,-1,54,-1,56,-1,58,-1,-1,60,62,-1,-1,-1,64,-1,66,-1,-1,68,70,-1,72,-1,-1,-1,-1,-1,-1,-1,-1],"split_conditions":[2.00001E0,2.00001E0,2.00001E0,2.00001E0,-3.0498272E-1,2.00001E0,2.00001E0,2.913031E-1,-1.9081171E-1,-2.8712162E-1,2.00001E0,2.00001E0,2.00001E0,-3.0682978E-1,2.00001E0,2.00001E0,2.00001E0,3.030244E-1,2.00001E0,-2.3691382E-1,2.00001E0,1.8732625E-1,-3.0133438E-1,2.00001E0,2.00001E0,2.00001E0,2.00001E0,-2.5265807E-1,2.00001E0,2.00001E0,-1.1866186E0,-2.9691482E-1,2.00001E0,-6.9659305E-1,2.00001E0,2.00001E0,-3.0325514E-1,-2.644096E-1,2.00001E0,2.5576195E-1,-1.2547657E-1,2.00001E0,2.00001E0,-5.357667E-1,2.00001E0,-2.9731235E-1,2.00001E0,-2.599631E-1,2.00001E0,2.0004986E-1,-7.4594E-1,2.00001E0,2.00001E0,-4.983946E-1,-3.0625853E-1,-3.0309263E-1,2.00001E0,-1.7243393E-1,2.00001E0,2.593724E-1,-3.60569E-1,2.00001E0,2.00001E0,-3.98206E-1,2.00001E0,8.984808E-2,3.0516678E-1,2.775862E-1,-5.461061E-1,-1.3281055E-1,3.02193E-1,-3.3537924E-1,-6.538137E-1],"split_indices":[12,5,14,4,0,400,5,0,0,0,1158,691,87,0,844,42,992,0,6,0,3458,0,0,42,757,96,1,0,1548,27,0,0,1078,0,753,389,0,0,3252,0,0,0,1062,0,29,0,665,0,211,0,0,6,379,0,0,0,808,0,1452,0,0,42,2471,0,1666,0,0,0,0,0,0,0,0],"split_type":[0,0,0,0,0,0,0,0,0,0,0,0,0,0,0,0,0,0,0,0,0,0,0,0,0,0,0,0,0,0,0,0,0,0,0,0,0,0,0,0,0,0,0,0,0,0,0,0,0,0,0,0,0,0,0,0,0,0,0,0,0,0,0,0,0,0,0,0,0,0,0,0,0],"sum_hessian":[1.6943873E4,6.816116E3,1.0127757E4,1.592804E1,6.800188E3,6.373643E3,3.754114E3,1.4777657E1,1.1503829E0,1.5952982E1,6.35769E3,1.639607E3,2.114507E3,1.3171334E1,6.3445186E3,4.5547188E1,1.5940598E3,6.6161755E2,1.4528894E3,3.4598076E0,6.3410586E3,1.5885177E0,4.3958668E1,8.098745E0,1.585961E3,1.0027658E3,4.5012366E2,2.6842663E0,6.3383745E3,6.263759E0,1.8349862E0,4.527577E0,1.5814336E3,2.326802E0,1.00043896E3,2.937448E2,1.5637881E2,1.6250063E0,6.3367495E3,5.1630697E0,1.1006894E0,2.910979E0,1.5785226E3,2.6404881E0,9.9779846E2,3.7610085E1,2.5613474E2,1.4573199E0,6.335292E3,1.9001828E0,1.0107962E0,8.034003E0,1.5704885E3,2.7895608E0,9.950089E2,2.6015562E1,2.3011919E2,1.2941298E0,6.333998E3,4.5109515E0,3.5230515E0,1.2338812E1,1.5581498E3,4.4156216E1,1.8596297E2,1.8086376E0,6.3321895E3,1.0029318E1,2.309494E0,1.1970541E0,1.5569526E3,2.4644022E1,1.6131894E2],"tree_param":{"num_deleted":"0","num_feature":"4096","num_nodes":"73","size_leaf_vector":"1"}},{"base_weights":[-1.4096631E-3,-1.0076241E0,6.7301756E-1,7.7015626E-1,-3.0364603E-1,9.98125E-1,1.2554006E-1,9.2565966E-1,-1.7399853E-1,-2.8059876E-1,1.0032537E0,9.0859574E-1,-4.8118123E-1,9.696598E-2,2.9589728E-1,-2.861301E-1,1.007772E0,-9.150574E-1,9.616223E-1,3.0083662E-1,-1.1498358E0,-2.2312824E-1,1.0089501E0,1.7344561E-1,-2.9709217E-1,-5.391052E-1,9.7254324E-1,-1.0281776E0,-1.4073563E0,-3.8492572E-1,1.0097125E0,2.5092226E-1,-1.962167E0,-4.8843423E-1,9.8207885E-1,-5.591726E-1,-3.069392E-1,-1.6051311E0,-3.0125204E-1,-2.3177086E-1,1.0107137E0,1.5301125E-1,-2.7774491E0,2.3447542E-1,-1.5003636E0,-5.898905E-1,9.869136E-1,-2.9346827E-1,-1.686848E0,-2.7510267E-1,1.011557E0,-2.0405161E-1,-1.0446163E0,-2.209483E-1,-6.1720645E-1,2.0837297E-1,-6.623271E-1,-3.8508973E-1,9.912568E-1,-2.9622233E-1,-1.7560447E0,-1.5934043E-1,1.0120282E0,1.879888E-1,-3.5326022E-1,-1.9827102E-1,9.944329E-1,-3.655332E-1,-1.8746941E0,7.126236E-2,3.0367175E-1,-1.11134715E-1,2.990376E-1,-3.743226E-1,-6.128886E-1],"categories":[],"categories_nodes":[],"categories_segments":[],"categories_sizes":[],"default_left":[0,0,0,0,0,0,0,0,0,0,0,0,0,0,0,0,0,0,0,0,0,0,0,0,0,0,0,0,0,0,0,0,0,0,0,0,0,0,0,0,0,0,0,0,0,0,0,0,0,0,0,0,0,0,0,0,0,0,0,0,0,0,0,0,0,0,0,0,0,0,0,0,0,0,0],"id":12,"left_children":[1,3,5,7,-1,9,11,13,-1,-1,15,17,19,-1,-1,-1,21,23,25,-1,27,-1,29,-1,-1,31,33,35,37,-1,39,-1,41,43,45,-1,-1,47,-1,-1,49,-1,51,-1,53,55,57,-1,59,-1,61,-1,-1,-1,-1,-1,-1,63,65,-1,67,-1,69,-1,-1,-1,71,-1,73,-1,-1,-1,-1,-1,-1],"loss_changes":[8.573527E3,4.160254E1,1.3461772E3,3.361112E0,0E0,4.7996094E1,1.339888E3,1.361208E-1,0E0,0E0,4.2817383E1,1.1993475E2,1.5780305E3,0E0,0E0,0E0,1.049707E1,4.5388985E0,2.0140015E1,0E0,3.289026E1,0E0,9.543945E0,0E0,0E0,1.9825928E1,1.7037842E1,1.248291E0,2.621228E1,0E0,9.202148E0,0E0,1.1222191E1,1.1936111E1,9.559204E0,0E0,0E0,1.0257019E1,0E0,0E0,8.59668E0,0E0,3.26721E0,0E0,6.1368084E-1,1.0360402E1,7.400757E0,0E0,8.151489E0,0E0,3.965332E0,0E0,0E0,0E0,0E0,0E0,0E0,4.295361E0,6.8205566E0,0E0,9.489136E0,0E0,5.292969E-1,0E0,0E0,0E0,4.1448975E0,0E0,1.3206482E1,0E0,0E0,0E0,0E0,0E0,0E0],"parents":[2147483647,0,0,1,1,2,2,3,3,5,5,6,6,7,7,10,10,11,11,12,12,16,16,17,17,18,18,20,20,22,22,25,25,26,26,27,27,28,28,30,30,32,32,33,33,34,34,37,37,40,40,42,42,44,44,45,45,46,46,48,48,50,50,57,57,58,58,60,60,62,62,66,66,68,68],"right_children":[2,4,6,8,-1,10,12,14,-1,-1,16,18,20,-1,-1,-1,22,24,26,-1,28,-1,30,-1,-1,32,34,36,38,-1,40,-1,42,44,46,-1,-1,48,-1,-1,50,-1,52,-1,54,56,58,-1,60,-1,62,-1,-1,-1,-1,-1,-1,64,66,-1,68,-1,70,-1,-1,-1,72,-1,74,-1,-1,-1,-1,-1,-1],"split_conditions":[2.00001E0,2.00001E0,2.00001E0,2.00001E0,-3.0364603E-1,2.00001E0,2.00001E0,2.00001E0,-1.7399853E-1,-2.8059876E-1,2.00001E0,2.00001E0,2.00001E0,9.696598E-2,2.9589728E-1,-2.861301E-1,2.00001E0,2.00001E0,2.00001E0,3.0083662E-1,2.00001E0,-2.2312824E-1,2.00001E0,1.7344561E-1,-2.9709217E-1,2.00001E0,2.00001E0,2.00001E0,2.00001E0,-3.8492572E-1,2.00001E0,2.5092226E-1,2.00001E0,2.00001E0,2.00001E0,-5.591726E-1,-3.069392E-1,2.00001E0,-3.0125204E-1,-2.3177086E-1,2.00001E0,1.5301125E-1,2.00001E0,2.3447542E-1,2.00001E0,2.00001E0,2.00001E0,-2.9346827E-1,2.00001E0,-2.7510267E-1,2.00001E0,-2.0405161E-1,-1.0446163E0,-2.209483E-1,-6.1720645E-1,2.0837297E-1,-6.623271E-1,2.00001E0,2.00001E0,-2.9622233E-1,2.00001E0,-1.5934043E-1,2.00001E0,1.879888E-1,-3.5326022E-1,-1.9827102E-1,2.00001E0,-3.655332E-1,2.00001E0,7.126236E-2,3.0367175E-1,-1.11134715E-1,2.990376E-1,-3.743226E-1,-6.128886E-1],"split_indices":[12,5,14,4,0,400,5,149,0,0,1158,691,87,0,0,0,844,42,992,0,6,0,2204,0,0,82,715,96,1,0,3458,0,28,42,1078,0,0,389,0,0,1660,0,49,0,389,42,1228,0,665,0,211,0,0,0,0,0,0,42,1512,0,808,0,1438,0,0,0,285,0,29,0,0,0,0,0,0],"split_type":[0,0,0,0,0,0,0,0,0,0,0,0,0,0,0,0,0,0,0,0,0,0,0,0,0,0,0,0,0,0,0,0,0,0,0,0,0,0,0,0,0,0,0,0,0,0,0,0,0,0,0,0,0,0,0,0,0,0,0,0,0,0,0,0,0,0,0,0,0,0,0,0,0,0,0],"sum_hessian":[1.2631798E4,5.068835E3,7.562963E3,1.2451734E1,5.0563833E3,4.7446396E3,2.818323E3,1.1447655E1,1.0040783E0,1.207234E1,4.7325674E3,1.2301504E3,1.5881726E3,1.6262163E0,9.821439E0,1.0417317E1,4.72215E3,3.42992E1,1.1958512E3,4.9316766E2,1.095005E3,2.7504337E0,4.7193994E3,1.3249347E0,3.2974266E1,8.290072E0,1.1875612E3,7.470671E2,3.479379E2,1.0099003E0,4.7183896E3,4.425089E0,3.8649838E0,7.375122E0,1.180186E3,2.273575E0,7.447935E2,2.3143167E2,1.16506226E2,2.21647E0,4.7161733E3,1.0513493E0,2.8136344E0,3.371438E0,4.003684E0,3.2476113E0,1.1769385E3,2.8184097E1,2.0324757E2,1.5873526E0,4.714586E3,1.2017914E0,1.611843E0,2.6675806E0,1.3361033E0,2.1284568E0,1.1191546E0,3.4372537E0,1.1735012E3,1.967204E1,1.8357553E2,1.0955938E0,4.71349E3,1.6016549E0,1.8355987E0,1.8543043E0,1.1716469E3,3.522775E1,1.4834778E2,1.5898498E0,4.7119004E3,1.7523916E0,1.1698945E3,3.317091E1,1.15176865E2],"tree_param":{"num_deleted":"0","num_feature":"4096","num_nodes":"75","size_leaf_vector":"1"}},{"base_weights":[-1.7967562E-3,-1.0041158E0,6.671106E-1,2.6930752E-1,-1.0083928E0,9.929838E-1,1.2280357E-1,-2.469479E-2,-3.02655E-1,-2.7313352E-1,9.982016E-1,8.917484E-1,-4.7642994E-1,-2.6404858E-1,1.0029091E0,-8.909629E-1,9.440392E-1,2.9873744E-1,-1.1360395E0,-2.0896503E-1,1.0041784E0,1.6036037E-1,-2.9205036E-1,-7.6460665E-1,9.515084E-1,-1.0256182E0,-1.3618267E0,-2.5923136E-1,1.0053018E0,-4.6728602E-1,9.619975E-1,-1.2904881E0,-3.0391294E-1,-1.5315968E0,-2.993904E-1,-2.9849112E-1,1.0062522E0,2.2083117E-1,-3.990248E-1,-7.1962225E-1,9.7041386E-1,-1.9907974E0,-2.842339E-1,-2.8922388E-1,-1.6010616E0,-2.1300805E-1,1.007355E0,1.938092E-1,-4.923725E-1,-3.2434574E-1,9.750407E-1,-2.1764702E-1,-2.4411733E0,-3.4157187E-1,-1.6928079E0,-1.5549955E-1,1.0079467E0,1.7263284E-1,-3.4993893E-1,-1.8400851E-1,9.7848064E-1,-2.987265E-1,-9.213995E-1,-3.4905612E-1,-1.8142699E0,1.2694918E-1,3.025669E-1,-9.273827E-2,2.9475904E-1,-2.8838387E-1,-5.810901E-1],"categories":[],"categories_nodes":[],"categories_segments":[],"categories_sizes":[],"default_left":[0,0,0,0,0,0,0,0,0,0,0,0,0,0,0,0,0,0,0,0,0,0,0,0,0,0,0,0,0,0,0,0,0,0,0,0,0,0,0,0,0,0,0,0,0,0,0,0,0,0,0,0,0,0,0,0,0,0,0,0,0,0,0,0,0,0,0,0,0,0,0],"id":13,"left_children":[1,3,5,-1,7,9,11,-1,-1,-1,13,15,17,-1,19,21,23,-1,25,-1,27,-1,-1,-1,29,31,33,-1,35,37,39,41,-1,43,-1,-1,45,-1,-1,47,49,51,-1,-1,53,-1,55,-1,-1,57,59,-1,61,-1,63,-1,65,-1,-1,-1,67,-1,-1,-1,69,-1,-1,-1,-1,-1,-1],"loss_changes":[6.310315E3,3.1547607E1,1.0011277E3,0E0,1.5085449E0,3.597534E1,9.749991E2,0E0,0E0,0E0,3.202124E1,8.722772E1,1.1561106E3,0E0,8.279053E0,3.6879654E0,2.5924377E1,0E0,1.9092896E1,0E0,8.237793E0,0E0,0E0,0E0,1.3837097E1,5.444946E-1,1.4956238E1,0E0,7.6726074E0,8.532434E0,1.3341553E1,3.2903748E0,0E0,5.556183E0,0E0,0E0,7.3549805E0,0E0,0E0,7.382167E0,5.6434937E0,1.7487736E0,0E0,0E0,4.816681E0,0E0,3.6879883E0,0E0,0E0,3.6391754E0,5.4432983E0,0E0,7.056217E-1,0E0,6.283539E0,0E0,8.227539E-1,0E0,0E0,0E0,4.9174194E0,0E0,0E0,0E0,9.06604E0,0E0,0E0,0E0,0E0,0E0,0E0],"parents":[2147483647,0,0,1,1,2,2,4,4,5,5,6,6,10,10,11,11,12,12,14,14,15,15,16,16,18,18,20,20,24,24,25,25,26,26,28,28,29,29,30,30,31,31,33,33,36,36,39,39,40,40,41,41,44,44,46,46,49,49,50,50,52,52,54,54,56,56,60,60,64,64],"right_children":[2,4,6,-1,8,10,12,-1,-1,-1,14,16,18,-1,20,22,24,-1,26,-1,28,-1,-1,-1,30,32,34,-1,36,38,40,42,-1,44,-1,-1,46,-1,-1,48,50,52,-1,-1,54,-1,56,-1,-1,58,60,-1,62,-1,64,-1,66,-1,-1,-1,68,-1,-1,-1,70,-1,-1,-1,-1,-1,-1],"split_conditions":[2.00001E0,2.00001E0,2.00001E0,2.6930752E-1,2.00001E0,2.00001E0,2.00001E0,-2.469479E-2,-3.02655E-1,-2.7313352E-1,2.00001E0,2.00001E0,2.00001E0,-2.6404858E-1,2.00001E0,2.00001E0,2.00001E0,2.9873744E-1,2.00001E0,-2.0896503E-1,2.00001E0,1.6036037E-1,-2.9205036E-1,-7.6460665E-1,2.00001E0,2.00001E0,2.00001E0,-2.5923136E-1,2.00001E0,2.00001E0,2.00001E0,2.00001E0,-3.0391294E-1,2.00001E0,-2.993904E-1,-2.9849112E-1,2.00001E0,2.2083117E-1,-3.990248E-1,2.00001E0,2.00001E0,2.00001E0,-2.842339E-1,-2.8922388E-1,2.00001E0,-2.1300805E-1,2.00001E0,1.938092E-1,-4.923725E-1,2.00001E0,2.00001E0,-2.1764702E-1,2.00001E0,-3.4157187E-1,2.00001E0,-1.5549955E-1,2.00001E0,1.7263284E-1,-3.4993893E-1,-1.8400851E-1,2.00001E0,-2.987265E-1,-9.213995E-1,-3.4905612E-1,2.00001E0,1.2694918E-1,3.025669E-1,-9.273827E-2,2.9475904E-1,-2.8838387E-1,-5.810901E-1],"split_indices":[12,42,14,0,5,400,5,0,0,0,1158,691,87,0,844,42,2806,0,6,0,1548,0,0,0,715,3,1,0,2204,42,1078,1,0,389,0,0,3458,0,0,42,1228,81,0,0,808,0,817,0,0,6,1512,0,883,0,29,0,197,0,0,0,1338,0,0,0,665,0,0,0,0,0,0],"split_type":[0,0,0,0,0,0,0,0,0,0,0,0,0,0,0,0,0,0,0,0,0,0,0,0,0,0,0,0,0,0,0,0,0,0,0,0,0,0,0,0,0,0,0,0,0,0,0,0,0,0,0,0,0,0,0,0,0,0,0,0,0,0,0,0,0,0,0,0,0,0,0],"sum_hessian":[9.409939E3,3.7661218E3,5.643817E3,7.982103E0,3.75814E3,3.5297524E3,2.1140647E3,1.9435271E0,3.7561963E3,9.175302E0,3.5205771E3,9.257023E2,1.1883623E3,8.336019E0,3.5122412E3,2.592205E1,8.997802E2,3.6753336E2,8.20829E2,2.2127345E0,3.5100283E3,1.1190485E0,2.4803003E1,1.1940445E0,8.985862E2,5.5496545E2,2.6586353E2,1.6477E0,3.5083806E3,6.2748685E0,8.923113E2,2.054782E1,5.344176E2,1.7909267E2,8.6770874E1,1.1693852E0,3.5072112E3,2.681572E0,3.5932963E0,4.0228934E0,8.882884E2,5.176595E0,1.5371223E1,2.115313E1,1.5793953E2,1.8392422E0,3.505372E3,1.7414478E0,2.2814455E0,2.9169E0,8.853715E2,2.044247E0,3.1323483E0,2.8364662E1,1.2957487E2,1.0198053E0,3.5043523E3,1.563257E0,1.3536431E0,1.5301474E0,8.838414E2,1.7343557E0,1.3979927E0,2.6159689E1,1.0341518E2,4.3727818E0,3.4999795E3,2.534745E0,8.8130664E2,1.4115908E1,8.929927E1],"tree_param":{"num_deleted":"0","num_feature":"4096","num_nodes":"71","size_leaf_vector":"1"}},{"base_weights":[-2.4956095E-3,-1.0013424E0,6.602991E-1,2.8162664E-1,-1.005614E0,9.8817456E-1,1.1850053E-1,1.6324243E-1,-3.0193824E-1,-7.9344845E-1,9.9383575E-1,6.793596E-1,-6.823244E-1,-2.633236E-1,-3.1361382E-2,-7.9517335E-1,9.9869204E-1,9.029091E-1,3.1685352E-2,9.8592955E-1,-1.1138481E0,-6.946677E-2,-2.6369393E-1,-3.0443E-1,1.0002135E0,-5.957808E-1,9.68014E-1,3.0012786E-1,-1.185197E0,-1.248962E-1,3.0009982E-1,-1.0061468E0,-1.3534133E0,1.0025542E0,-1.1156972E-1,2.5502753E-1,-2.8576538E-1,-7.69656E-1,9.792626E-1,1.3895532E-1,-1.2165413E0,3.7720203E-1,-3.0556852E-1,-1.0678287E0,-1.3119535E0,-2.3726313E-1,1.0037316E0,2.124823E-1,-2.319661E-1,1.8663615E-1,-4.9229595E-1,-6.8504065E-1,9.868767E-1,-8.3112806E-1,-1.1644354E0,2.2215247E-1,-9.356129E-2,-1.4205393E0,-2.9730767E-1,-1.9589421E-1,1.0049615E0,3.4717746E-2,-3.6287022E-1,-2.2497703E-1,9.930304E-1,-1.5024002E0,-1.052229E0,-2.8507924E-1,-1.4914721E0,-1.04232185E-1,1.0057166E0,-3.0526182E-1,9.980777E-1,-3.55492E-1,-2.174897E0,-6.2684244E-1,-1.0088663E0,-3.2486716E-1,-1.5908438E0,1.692718E-2,3.0182967E-1,-3.1672606E-1,1.6526183E-1,1.2622972E-2,2.998586E-1,-2.8959683E-1,-9.6358025E-1,-2.3551884E-3,-3.0836514E-1,-2.779682E-1,-5.032578E-1],"categories":[],"categories_nodes":[],"categories_segments":[],"categories_sizes":[],"default_left":[0,0,0,0,0,0,0,0,0,0,0,0,0,0,0,0,0,0,0,0,0,0,0,0,0,0,0,0,0,0,0,0,0,0,0,0,0,0,0,0,0,0,0,0,0,0,0,0,0,0,0,0,0,0,0,0,0,0,0,0,0,0,0,0,0,0,0,0,0,0,0,0,0,0,0,0,0,0,0,0,0,0,0,0,0,0,0,0,0,0,0],"id":14,"left_children":[1,3,5,-1,7,9,11,-1,-1,13,15,17,19,-1,-1,21,23,25,27,29,31,-1,-1,-1,33,35,37,-1,39,-1,-1,41,43,45,47,-1,-1,49,51,-1,53,55,-1,-1,57,-1,59,-1,-1,-1,-1,61,63,-1,65,-1,-1,67,-1,-1,69,-1,-1,-1,71,73,75,-1,77,-1,79,81,83,-1,85,-1,87,-1,89,-1,-1,-1,-1,-1,-1,-1,-1,-1,-1,-1,-1],"loss_changes":[4.6430435E3,2.4128174E1,7.487993E2,0E0,4.2111816E0,2.7277832E1,7.1486237E2,0E0,0E0,4.2362976E-1,2.354248E1,1.3548209E2,4.7307883E2,0E0,0E0,1.5758657E-1,9.016602E0,6.846161E1,2.855097E2,3.1484528E0,1.2090149E1,0E0,0E0,0E0,6.904297E0,1.6070784E1,1.3794067E1,0E0,6.11055E0,0E0,0E0,6.6281433E0,9.853973E0,6.294922E0,4.010457E0,0E0,0E0,6.903548E0,9.081665E0,0E0,5.3267517E0,1.2231985E0,0E0,0E0,4.0791016E0,0E0,5.961426E0,0E0,0E0,0E0,0E0,1.6567078E0,7.8060303E0,0E0,2.3603668E0,0E0,0E0,2.430191E0,0E0,0E0,3.0061035E0,0E0,0E0,0E0,4.621521E0,2.4537544E0,1.5515366E0,0E0,2.2751617E0,0E0,8.8720703E-1,2.7128177E0,8.685913E-1,0E0,4.8774014E0,0E0,1.5154877E0,0E0,2.883545E0,0E0,0E0,0E0,0E0,0E0,0E0,0E0,0E0,0E0,0E0,0E0,0E0],"parents":[2147483647,0,0,1,1,2,2,4,4,5,5,6,6,9,9,10,10,11,11,12,12,15,15,16,16,17,17,18,18,19,19,20,20,24,24,25,25,26,26,28,28,31,31,32,32,33,33,34,34,37,37,38,38,40,40,41,41,44,44,46,46,51,51,52,52,54,54,57,57,60,60,64,64,65,65,66,66,68,68,70,70,71,71,72,72,74,74,76,76,78,78],"right_children":[2,4,6,-1,8,10,12,-1,-1,14,16,18,20,-1,-1,22,24,26,28,30,32,-1,-1,-1,34,36,38,-1,40,-1,-1,42,44,46,48,-1,-1,50,52,-1,54,56,-1,-1,58,-1,60,-1,-1,-1,-1,62,64,-1,66,-1,-1,68,-1,-1,70,-1,-1,-1,72,74,76,-1,78,-1,80,82,84,-1,86,-1,88,-1,90,-1,-1,-1,-1,-1,-1,-1,-1,-1,-1,-1,-1],"split_conditions":[2.00001E0,2.00001E0,2.00001E0,2.8162664E-1,2.00001E0,2.00001E0,2.00001E0,1.6324243E-1,-3.0193824E-1,2.00001E0,2.00001E0,2.00001E0,2.00001E0,-2.633236E-1,-3.1361382E-2,2.00001E0,2.00001E0,2.00001E0,2.00001E0,2.00001E0,2.00001E0,-6.946677E-2,-2.6369393E-1,-3.0443E-1,2.00001E0,2.00001E0,2.00001E0,3.0012786E-1,2.00001E0,-1.248962E-1,3.0009982E-1,2.00001E0,2.00001E0,2.00001E0,2.00001E0,2.5502753E-1,-2.8576538E-1,2.00001E0,2.00001E0,1.3895532E-1,2.00001E0,2.00001E0,-3.0556852E-1,-1.0678287E0,2.00001E0,-2.3726313E-1,2.00001E0,2.124823E-1,-2.319661E-1,1.8663615E-1,-4.9229595E-1,2.00001E0,2.00001E0,-8.3112806E-1,2.00001E0,2.2215247E-1,-9.356129E-2,2.00001E0,-2.9730767E-1,-1.9589421E-1,2.00001E0,3.4717746E-2,-3.6287022E-1,-2.2497703E-1,2.00001E0,2.00001E0,2.00001E0,-2.8507924E-1,2.00001E0,-1.04232185E-1,2.00001E0,2.00001E0,2.00001E0,-3.55492E-1,2.00001E0,-6.2684244E-1,2.00001E0,-3.2486716E-1,2.00001E0,1.692718E-2,3.0182967E-1,-3.1672606E-1,1.6526183E-1,1.2622972E-2,2.998586E-1,-2.8959683E-1,-9.6358025E-1,-2.3551884E-3,-3.0836514E-1,-2.779682E-1,-5.032578E-1],"split_indices":[12,49,14,0,42,389,15,0,0,255,1158,10,42,0,0,2,976,136,42,674,6,0,0,0,1,32,992,0,80,0,0,32,60,2204,42,0,0,42,368,0,1273,28,0,0,1,0,3458,0,0,0,0,31,1512,0,28,0,0,389,0,0,205,0,0,0,931,17,358,0,808,0,1438,55,873,0,757,0,31,0,665,0,0,0,0,0,0,0,0,0,0,0,0],"split_type":[0,0,0,0,0,0,0,0,0,0,0,0,0,0,0,0,0,0,0,0,0,0,0,0,0,0,0,0,0,0,0,0,0,0,0,0,0,0,0,0,0,0,0,0,0,0,0,0,0,0,0,0,0,0,0,0,0,0,0,0,0,0,0,0,0,0,0,0,0,0,0,0,0,0,0,0,0,0,0,0,0,0,0,0,0,0,0,0,0,0,0],"sum_hessian":[7.0113403E3,2.796476E3,4.2148643E3,5.6631308E0,2.790813E3,2.6253066E3,1.5895576E3,1.1736305E0,2.7896394E3,7.8748264E0,2.6174316E3,9.349297E2,6.5462787E2,6.7720714E0,1.1027548E0,6.645212E0,2.6107866E3,6.947408E2,2.4018892E2,1.3426805E2,5.2035986E2,1.3472989E0,5.2979136E0,1.4686017E0,2.6093179E3,2.8584547E1,6.661562E2,1.3382825E2,1.0636068E2,1.0814042E0,1.3318665E2,3.6256256E2,1.5779729E2,2.6039343E3,5.3836346E0,5.3836503E0,2.3200895E1,3.8508866E0,6.6230536E2,1.7276403E0,1.0463303E2,2.9635606E0,3.59599E2,1.345635E0,1.5645166E2,1.2684231E0,2.6026658E3,2.3729155E0,3.0107193E0,1.5927682E0,2.2581186E0,2.611059E0,6.596943E2,1.7021786E0,1.02930855E2,1.8915943E0,1.0719664E0,1.1433887E2,4.2112793E1,1.5376617E0,2.6011282E3,1.34187E0,1.269189E0,1.9024019E0,6.577919E2,2.2567623E1,8.0363235E1,1.6872585E1,9.746628E1,1.195125E0,2.599933E3,2.3169794E0,6.554749E2,1.7207512E1,5.3601117E0,1.3313434E0,7.903189E1,2.1394987E1,7.607129E1,1.1067009E0,2.5988264E3,1.1104183E0,1.2065611E0,1.0388119E0,6.544361E2,3.3655107E0,1.9946009E0,1.4998078E0,7.753208E1,1.0129981E1,6.594131E1],"tree_param":{"num_deleted":"0","num_feature":"4096","num_nodes":"91","size_leaf_vector":"1"}},{"base_weights":[-3.2679297E-3,-9.991284E-1,6.536648E-1,6.381522E-1,-3.0134884E-1,9.8348755E-1,1.14048935E-1,-5.1468033E-2,2.5178796E-1,-7.4278915E-1,9.894718E-1,8.582085E-1,-4.7254968E-1,-2.532072E-1,-2.6505942E-2,-7.32024E-1,9.9471074E-1,-8.3509636E-1,9.0791464E-1,2.9410508E-1,-1.111955E0,-5.792553E-2,-2.502016E-1,-3.281206E-1,9.9674374E-1,9.437444E-2,-2.8165627E-1,-4.3792692E-1,9.1908735E-1,-1.3307451E0,-1.0347972E0,-2.3684385E-1,9.984263E-1,-4.869738E-1,9.288504E-1,-1.5508491E0,-2.9531303E-1,-3.019713E-1,-3.5131803E-1,1.0009497E0,-1.0071474E-1,-2.7528343E-1,9.369194E-1,-3.076548E-1,-1.6602826E0,-1.8021578E-1,1.0023352E0,1.9846633E-1,-2.1654388E-1,-6.003923E-1,9.470665E-1,-3.0595016E-1,-1.7969817E0,-9.0470344E-2,1.0032525E0,1.8043231E-2,-2.5942513E-1,-1.579288E-1,9.5193416E-1,-3.4076795E-1,-1.9749062E0,1.3848492E-2,3.0119377E-1,-5.9364833E-2,2.8748554E-1,-7.469444E-1,-4.3022355E-1],"categories":[],"categories_nodes":[],"categories_segments":[],"categories_sizes":[],"default_left":[0,0,0,0,0,0,0,0,0,0,0,0,0,0,0,0,0,0,0,0,0,0,0,0,0,0,0,0,0,0,0,0,0,0,0,0,0,0,0,0,0,0,0,0,0,0,0,0,0,0,0,0,0,0,0,0,0,0,0,0,0,0,0,0,0,0,0],"id":15,"left_children":[1,3,5,7,-1,9,11,-1,-1,13,15,17,19,-1,-1,21,23,25,27,-1,29,-1,-1,-1,31,-1,-1,-1,33,35,37,-1,39,-1,41,43,-1,-1,-1,45,47,-1,49,-1,51,-1,53,-1,-1,55,57,-1,59,-1,61,-1,-1,-1,63,-1,65,-1,-1,-1,-1,-1,-1],"loss_changes":[3.4175283E3,1.8888672E1,5.600819E2,1.3486116E0,0E0,2.0914429E1,5.2212024E2,0E0,0E0,4.1035128E-1,1.8288452E1,4.5129852E1,6.2256525E2,0E0,0E0,1.9531131E-1,9.333618E0,2.1508408E0,1.4902344E1,0E0,6.4729614E0,0E0,0E0,0E0,6.619507E0,0E0,0E0,0E0,1.4187103E1,7.449341E0,1.607666E-1,0E0,5.4785156E0,0E0,8.451019E0,2.3361206E0,0E0,0E0,0E0,4.8947754E0,3.010266E0,0E0,8.489807E0,0E0,3.1161346E0,0E0,2.614624E0,0E0,0E0,7.403126E-1,4.1221924E0,0E0,3.0815887E0,0E0,1.2977295E0,0E0,0E0,0E0,3.8667297E0,0E0,5.9857635E0,0E0,0E0,0E0,0E0,0E0,0E0],"parents":[2147483647,0,0,1,1,2,2,3,3,5,5,6,6,9,9,10,10,11,11,12,12,15,15,16,16,17,17,18,18,20,20,24,24,28,28,29,29,30,30,32,32,34,34,35,35,39,39,40,40,42,42,44,44,46,46,49,49,50,50,52,52,54,54,58,58,60,60],"right_children":[2,4,6,8,-1,10,12,-1,-1,14,16,18,20,-1,-1,22,24,26,28,-1,30,-1,-1,-1,32,-1,-1,-1,34,36,38,-1,40,-1,42,44,-1,-1,-1,46,48,-1,50,-1,52,-1,54,-1,-1,56,58,-1,60,-1,62,-1,-1,-1,64,-1,66,-1,-1,-1,-1,-1,-1],"split_conditions":[2.00001E0,2.00001E0,2.00001E0,2.00001E0,-3.0134884E-1,2.00001E0,2.00001E0,-5.1468033E-2,2.5178796E-1,2.00001E0,2.00001E0,2.00001E0,2.00001E0,-2.532072E-1,-2.6505942E-2,2.00001E0,2.00001E0,2.00001E0,2.00001E0,2.9410508E-1,2.00001E0,-5.792553E-2,-2.502016E-1,-3.281206E-1,2.00001E0,9.437444E-2,-2.8165627E-1,-4.3792692E-1,2.00001E0,2.00001E0,2.00001E0,-2.3684385E-1,2.00001E0,-4.869738E-1,2.00001E0,2.00001E0,-2.9531303E-1,-3.019713E-1,-3.5131803E-1,2.00001E0,2.00001E0,-2.7528343E-1,2.00001E0,-3.076548E-1,2.00001E0,-1.8021578E-1,2.00001E0,1.9846633E-1,-2.1654388E-1,2.00001E0,2.00001E0,-3.0595016E-1,2.00001E0,-9.0470344E-2,2.00001E0,1.8043231E-2,-2.5942513E-1,-1.579288E-1,2.00001E0,-3.4076795E-1,2.00001E0,1.3848492E-2,3.0119377E-1,-5.9364833E-2,2.8748554E-1,-7.469444E-1,-4.3022355E-1],"split_indices":[12,5,14,56,0,389,5,0,0,255,1158,691,87,0,0,2,1660,6,2806,0,3,0,0,0,1344,0,0,0,2071,1,6,0,1,0,1243,808,0,0,0,3458,42,0,1078,0,29,0,205,0,0,0,2471,0,17,0,1273,0,0,0,368,0,30,0,0,0,0,0,0],"split_type":[0,0,0,0,0,0,0,0,0,0,0,0,0,0,0,0,0,0,0,0,0,0,0,0,0,0,0,0,0,0,0,0,0,0,0,0,0,0,0,0,0,0,0,0,0,0,0,0,0,0,0,0,0,0,0,0,0,0,0,0,0,0,0,0,0,0,0],"sum_hessian":[5.221876E3,2.0753228E3,3.1465535E3,6.396393E0,2.0689263E3,1.9523936E3,1.1941599E3,1.3020258E0,5.094367E0,6.319413E0,1.9460742E3,5.2618195E2,6.6797797E2,5.221935E0,1.0974784E0,5.483522E0,1.9405907E3,1.4554743E1,5.116272E2,2.0397011E2,4.6400784E2,1.3329011E0,4.150621E0,1.3649875E0,1.9392257E3,1.0366266E0,1.3518116E1,1.7940218E0,5.0983316E2,1.1673761E2,3.4727023E2,1.384357E0,1.9378413E3,1.3181441E0,5.08515E2,6.925269E1,4.7484917E1,2.9462665E2,5.2643578E1,1.9334917E3,4.3496256E0,1.7220813E0,5.0679294E2,1.372712E1,5.5525574E1,1.2971482E0,1.9321946E3,1.923631E0,2.4259946E0,2.9417603E0,5.038512E2,1.1255038E1,4.4270535E1,1.1279026E0,1.9310667E3,1.0616261E0,1.8801341E0,1.3061838E0,5.02545E2,1.0954097E1,3.331644E1,1.5141473E0,1.9295525E3,2.5948644E0,4.9995013E2,1.5221102E1,1.8095337E1],"tree_param":{"num_deleted":"0","num_feature":"4096","num_nodes":"67","size_leaf_vector":"1"}},{"base_weights":[-4.232565E-3,-9.971925E-1,6.445617E-1,2.5863597E-1,-1.00208E0,9.7877157E-1,1.0816132E-1,-3.338249E-2,-3.0090958E-1,-6.882568E-1,9.85186E-1,6.4955056E-1,-6.6720515E-1,-2.4181561E-1,-2.2392038E-2,-6.6824555E-1,9.9092185E-1,8.8005555E-1,6.262937E-3,9.668199E-1,-1.0869265E0,-4.8256934E-2,-2.3622574E-1,-2.9831913E-1,9.9362886E-1,-5.4731107E-1,9.442034E-1,2.9741222E-1,-1.1259094E0,-1.1846055E-1,2.9735842E-1,-7.583212E-1,-1.0689039E0,-2.144078E-1,9.9555427E-1,2.0011367E-1,-2.7881497E-1,-6.1298716E-1,9.5763224E-1,1.3329302E-1,-1.1622027E0,-7.729419E-2,-1.0796454E0,9.983064E-1,-8.989493E-2,-6.1415404E-1,9.695649E-1,-1.8682964E-2,-1.1905566E0,1.7196049E-1,-2.2352129E-1,-3.0383876E-1,-1.2106248E0,-1.658757E-1,9.998853E-1,1.8456385E-1,-2.010907E-1,8.97316E-2,-3.4199357E-1,-1.4706284E-1,9.7834283E-1,-2.8884527E-1,-1.2939029E0,-3.8310862E-1,-2.9287273E-1,-7.8224316E-2,1.0010147E0,-1.7940652E-1,9.85192E-1,-1.488288E0,-2.7878666E-1,1.1416675E-2,3.00599E-1,-7.1886554E-2,2.9801574E-1,-3.3922353E-1,-5.28431E-1],"categories":[],"categories_nodes":[],"categories_segments":[],"categories_sizes":[],"default_left":[0,0,0,0,0,0,0,0,0,0,0,0,0,0,0,0,0,0,0,0,0,0,0,0,0,0,0,0,0,0,0,0,0,0,0,0,0,0,0,0,0,0,0,0,0,0,0,0,0,0,0,0,0,0,0,0,0,0,0,0,0,0,0,0,0,0,0,0,0,0,0,0,0,0,0,0,0],"id":16,"left_children":[1,3,5,-1,7,9,11,-1,-1,13,15,17,19,-1,-1,21,23,25,27,29,31,-1,-1,-1,33,35,37,-1,39,-1,-1,-1,41,-1,43,-1,-1,-1,45,-1,47,49,51,53,55,57,59,-1,61,-1,-1,-1,63,-1,65,-1,-1,-1,-1,-1,67,-1,69,-1,-1,-1,71,-1,73,75,-1,-1,-1,-1,-1,-1,-1],"loss_changes":[2.5120237E3,1.4867065E1,4.226772E2,0E0,1.1918945E0,1.6214111E1,3.8093842E2,0E0,0E0,3.8493013E-1,1.4392334E1,7.921599E1,2.569933E2,0E0,0E0,2.1208858E-1,8.744141E0,3.653015E1,1.5943036E2,2.9403229E0,5.020355E0,0E0,0E0,0E0,5.453491E0,8.762261E0,1.7072266E1,0E0,4.306755E0,0E0,0E0,0E0,3.063446E0,0E0,4.3927E0,0E0,0E0,0E0,7.6431885E0,0E0,1.9619217E0,2.2702668E0,1.3323975E0,4.0722656E0,2.278721E0,1.9945698E0,5.263275E0,0E0,2.5086212E-1,0E0,0E0,0E0,2.1040344E-1,0E0,2.3052979E0,0E0,0E0,0E0,0E0,0E0,4.5993347E0,0E0,1.5109711E0,0E0,0E0,0E0,1.3186035E0,0E0,3.953247E0,4.469986E-1,0E0,0E0,0E0,0E0,0E0,0E0,0E0],"parents":[2147483647,0,0,1,1,2,2,4,4,5,5,6,6,9,9,10,10,11,11,12,12,15,15,16,16,17,17,18,18,19,19,20,20,24,24,25,25,26,26,28,28,32,32,34,34,38,38,40,40,41,41,42,42,43,43,44,44,45,45,46,46,48,48,52,52,54,54,60,60,62,62,66,66,68,68,69,69],"right_children":[2,4,6,-1,8,10,12,-1,-1,14,16,18,20,-1,-1,22,24,26,28,30,32,-1,-1,-1,34,36,38,-1,40,-1,-1,-1,42,-1,44,-1,-1,-1,46,-1,48,50,52,54,56,58,60,-1,62,-1,-1,-1,64,-1,66,-1,-1,-1,-1,-1,68,-1,70,-1,-1,-1,72,-1,74,76,-1,-1,-1,-1,-1,-1,-1],"split_conditions":[2.00001E0,2.00001E0,2.00001E0,2.5863597E-1,2.00001E0,2.00001E0,2.00001E0,-3.338249E-2,-3.0090958E-1,2.00001E0,2.00001E0,2.00001E0,2.00001E0,-2.4181561E-1,-2.2392038E-2,2.00001E0,2.00001E0,2.00001E0,2.00001E0,2.00001E0,2.00001E0,-4.8256934E-2,-2.3622574E-1,-2.9831913E-1,2.00001E0,2.00001E0,2.00001E0,2.9741222E-1,2.00001E0,-1.1846055E-1,2.9735842E-1,-7.583212E-1,2.00001E0,-2.144078E-1,2.00001E0,2.0011367E-1,-2.7881497E-1,-6.1298716E-1,2.00001E0,1.3329302E-1,2.00001E0,2.00001E0,2.00001E0,2.00001E0,2.00001E0,2.00001E0,2.00001E0,-1.8682964E-2,2.00001E0,1.7196049E-1,-2.2352129E-1,-3.0383876E-1,2.00001E0,-1.658757E-1,2.00001E0,1.8456385E-1,-2.010907E-1,8.97316E-2,-3.4199357E-1,-1.4706284E-1,2.00001E0,-2.8884527E-1,2.00001E0,-3.8310862E-1,-2.9287273E-1,-7.8224316E-2,2.00001E0,-1.7940652E-1,2.00001E0,2.00001E0,-2.7878666E-1,1.1416675E-2,3.00599E-1,-7.1886554E-2,2.9801574E-1,-3.3922353E-1,-5.28431E-1],"split_indices":[12,49,14,0,5,389,15,0,0,255,1158,10,42,0,0,2,1548,136,42,674,60,0,0,0,1344,5,1214,0,34,0,0,0,32,0,1,0,0,0,368,0,49,6,6,3458,42,87,931,0,197,0,0,0,1,0,205,0,0,0,0,0,1512,0,1,0,0,0,1273,0,992,17,0,0,0,0,0,0,0],"split_type":[0,0,0,0,0,0,0,0,0,0,0,0,0,0,0,0,0,0,0,0,0,0,0,0,0,0,0,0,0,0,0,0,0,0,0,0,0,0,0,0,0,0,0,0,0,0,0,0,0,0,0,0,0,0,0,0,0,0,0,0,0,0,0,0,0,0,0,0,0,0,0,0,0,0,0,0,0],"sum_hessian":[3.897287E3,1.5399316E3,2.3573555E3,3.577515E0,1.5363541E3,1.4519059E3,9.054497E2,1.7657677E0,1.5345884E3,5.157819E0,1.446748E3,5.3326605E2,3.7218362E2,4.064041E0,1.0937774E0,4.6021957E0,1.4421459E3,3.9232043E2,1.4094563E2,7.579626E1,2.9638736E2,1.3222775E0,3.279918E0,1.464892E0,1.4406809E3,1.6549175E1,3.7577127E2,7.543419E1,6.551145E1,1.0656241E0,7.473064E1,1.941228E0,2.9444614E2,1.2051731E0,1.4394757E3,3.782195E0,1.276698E1,1.0051317E0,3.7476614E2,1.2260133E0,6.428544E1,3.2432098E0,2.9120294E2,1.4359154E3,3.5604E0,2.443456E0,3.723227E2,1.6958344E0,6.2589603E1,1.7146039E0,1.5286059E0,1.9858234E2,9.26206E1,1.1049932E0,1.4348104E3,1.580438E0,1.9799621E0,1.0503545E0,1.3931016E0,1.8976469E0,3.7042505E2,2.2757174E1,3.9832428E1,6.870656E1,2.3914036E1,1.0784919E0,1.4337318E3,1.2290988E0,3.6919595E2,2.3971035E1,1.5861392E1,1.5011092E0,1.4322307E3,2.2657251E0,3.669302E2,1.2607664E1,1.1363371E1],"tree_param":{"num_deleted":"0","num_feature":"4096","num_nodes":"77","size_leaf_vector":"1"}},{"base_weights":[-5.248969E-3,-9.952894E-1,6.365491E-1,5.103892E-1,-3.0055428E-1,9.7333395E-1,1.0302948E-1,2.4274062E-1,-2.6959976E-2,-2.333853E-1,9.7965425E-1,6.3242847E-1,-6.602244E-1,-6.14156E-1,9.862282E-1,8.6114776E-1,2.134635E-3,9.537685E-1,-1.074326E0,-5.2159492E-2,-2.2185214E-1,-3.0596682E-1,9.898487E-1,-5.116326E-1,9.2597216E-1,2.9574218E-1,-1.0691842E0,-9.42175E-2,2.9568422E-1,4.4188563E-2,-1.0825627E0,-1.9530918E-1,9.922468E-1,2.172361E-1,-8.548654E-1,-5.265118E-1,9.4602674E-1,1.3452716E-1,-1.1259878E0,-6.150543E-1,-1.0648692E0,-1.6333602E-1,9.9558604E-1,-2.710407E-1,-8.3911814E-2,1.5691343E-1,-3.027044E-1,-3.1759697E-1,9.574335E-1,-4.132092E-2,1.1163856E-1,-5.119848E-1,-3.47932E-1,-3.0117878E-1,-3.526451E-1,1.6459724E-1,-2.031583E-1,9.986416E-1,-8.0617994E-2,-1.6216663E-1,9.6622545E-1,-2.0374513E-1,-2.4144895E-2,-6.564627E-2,1.0006247E0,1.7084306E-1,-1.858718E-1,-1.6483761E-1,9.7398424E-1,4.8254743E-2,3.0060962E-1,-4.2850107E-2,2.9431778E-1],"categories":[],"categories_nodes":[],"categories_segments":[],"categories_sizes":[],"default_left":[0,0,0,0,0,0,0,0,0,0,0,0,0,0,0,0,0,0,0,0,0,0,0,0,0,0,0,0,0,0,0,0,0,0,0,0,0,0,0,0,0,0,0,0,0,0,0,0,0,0,0,0,0,0,0,0,0,0,0,0,0,0,0,0,0,0,0,0,0,0,0,0,0],"id":17,"left_children":[1,3,5,7,-1,9,11,-1,-1,-1,13,15,17,19,21,23,25,27,29,-1,-1,-1,31,33,35,-1,37,-1,-1,-1,39,-1,41,-1,43,45,47,49,51,-1,53,55,57,-1,-1,-1,-1,-1,59,-1,-1,61,-1,-1,-1,-1,-1,63,65,-1,67,-1,-1,-1,69,-1,-1,-1,71,-1,-1,-1,-1],"loss_changes":[1.847604E3,1.1803589E1,3.1688367E2,1.080861E0,0E0,1.2731201E1,2.7671622E2,0E0,0E0,0E0,1.1899658E1,5.8276688E1,1.8852173E2,1.4980924E-1,8.809082E0,2.687001E1,1.1554235E2,2.6435966E0,2.410614E0,0E0,0E0,0E0,4.866089E0,6.565342E0,8.759125E0,0E0,3.740017E0,0E0,0E0,0E0,1.6234741E0,0E0,4.2963867E0,0E0,6.683159E-2,2.809072E0,7.418564E0,2.6204008E-1,4.4810867E-1,0E0,3.058014E-1,1.8151414E0,3.5935059E0,0E0,0E0,0E0,0E0,0E0,4.197281E0,0E0,0E0,2.6343203E-1,0E0,0E0,0E0,0E0,0E0,2.7910156E0,1.7367661E0,0E0,3.8016968E0,0E0,0E0,0E0,1.0961914E0,0E0,0E0,0E0,2.3265686E0,0E0,0E0,0E0,0E0],"parents":[2147483647,0,0,1,1,2,2,3,3,5,5,6,6,10,10,11,11,12,12,13,13,14,14,15,15,16,16,17,17,18,18,22,22,23,23,24,24,26,26,30,30,32,32,34,34,35,35,36,36,37,37,38,38,40,40,41,41,42,42,48,48,51,51,57,57,58,58,60,60,64,64,68,68],"right_children":[2,4,6,8,-1,10,12,-1,-1,-1,14,16,18,20,22,24,26,28,30,-1,-1,-1,32,34,36,-1,38,-1,-1,-1,40,-1,42,-1,44,46,48,50,52,-1,54,56,58,-1,-1,-1,-1,-1,60,-1,-1,62,-1,-1,-1,-1,-1,64,66,-1,68,-1,-1,-1,70,-1,-1,-1,72,-1,-1,-1,-1],"split_conditions":[2.00001E0,2.00001E0,2.00001E0,2.00001E0,-3.0055428E-1,2.00001E0,2.00001E0,2.4274062E-1,-2.6959976E-2,-2.333853E-1,2.00001E0,2.00001E0,2.00001E0,2.00001E0,2.00001E0,2.00001E0,2.00001E0,2.00001E0,2.00001E0,-5.2159492E-2,-2.2185214E-1,-3.0596682E-1,2.00001E0,2.00001E0,2.00001E0,2.9574218E-1,2.00001E0,-9.42175E-2,2.9568422E-1,4.4188563E-2,2.00001E0,-1.9530918E-1,2.00001E0,2.172361E-1,2.00001E0,2.00001E0,2.00001E0,2.00001E0,2.00001E0,-6.150543E-1,2.00001E0,2.00001E0,2.00001E0,-2.710407E-1,-8.3911814E-2,1.5691343E-1,-3.027044E-1,-3.1759697E-1,2.00001E0,-4.132092E-2,1.1163856E-1,2.00001E0,-3.47932E-1,-3.0117878E-1,-3.526451E-1,1.6459724E-1,-2.031583E-1,2.00001E0,2.00001E0,-1.6216663E-1,2.00001E0,-2.0374513E-1,-2.4144895E-2,-6.564627E-2,2.00001E0,1.7084306E-1,-1.858718E-1,-1.6483761E-1,2.00001E0,4.8254743E-2,3.0060962E-1,-4.2850107E-2,2.9431778E-1],"split_indices":[12,5,14,49,0,400,15,0,0,0,1158,10,42,2,976,136,42,674,91,0,0,0,2507,32,992,0,49,0,0,0,60,0,197,0,6,42,404,22,82,0,6,42,1,0,0,0,0,0,840,0,0,204,0,0,0,0,0,665,42,0,1512,0,0,0,750,0,0,0,931,0,0,0,0],"split_type":[0,0,0,0,0,0,0,0,0,0,0,0,0,0,0,0,0,0,0,0,0,0,0,0,0,0,0,0,0,0,0,0,0,0,0,0,0,0,0,0,0,0,0,0,0,0,0,0,0,0,0,0,0,0,0,0,0,0,0,0,0,0,0,0,0,0,0,0,0,0,0,0,0],"sum_hessian":[2.9057559E3,1.14261E3,1.7631458E3,4.6219254E0,1.137988E3,1.0803496E3,6.827962E2,2.8536735E0,1.768252E0,3.4458609E0,1.0769037E3,4.032619E2,2.7953427E2,4.044009E0,1.0728597E3,2.9562137E2,1.0764055E2,5.6809944E1,2.2272433E2,1.4251716E0,2.6188378E0,1.4270461E0,1.0714327E3,1.3019343E1,2.8260202E2,5.615734E1,5.1483204E1,1.1748571E0,5.5635086E1,1.3785849E0,2.2134575E2,1.1688817E0,1.0702638E3,2.588863E0,1.043048E1,3.504837E0,2.790972E2,2.2583683E0,4.922484E1,1.9119761E0,2.1943378E2,2.9457135E0,1.0673181E3,9.091399E0,1.3390806E0,1.0773418E0,2.4274952E0,1.0596534E0,2.7803754E2,1.2482841E0,1.010084E0,3.4098485E0,4.5814987E1,1.479827E2,7.145109E1,1.2064102E0,1.7393034E0,1.0643682E3,2.9499032E0,1.269406E0,2.7676813E2,2.0440521E0,1.3657963E0,1.5530604E0,1.0628152E3,1.3114188E0,1.6384845E0,1.0539843E0,2.7571414E2,1.9710002E0,1.0608441E3,1.6148518E0,2.740993E2],"tree_param":{"num_deleted":"0","num_feature":"4096","num_nodes":"73","size_leaf_vector":"1"}},{"base_weights":[-5.986866E-3,-9.933257E-1,6.2815356E-1,2.1842487E-1,-9.9956E-1,9.675017E-1,9.864869E-2,-4.413066E-2,-3.002501E-1,-1.8543209E-1,9.751078E-1,7.89695E-1,-4.6636534E-1,-5.414249E-1,9.8228645E-1,-7.810142E-1,8.3480275E-1,9.429038E-1,-3.200526E-1,-3.1414803E-2,-2.073038E-1,-2.964441E-1,9.8706746E-1,-1.3798531E-2,-2.8251117E-1,-5.204943E-1,8.68682E-1,4.2850807E-1,9.6435714E-1,-1.7884648E-1,9.900045E-1,1.8273814E-1,-1.0059404E0,9.8188853E-1,4.984268E-1,2.2229242E-1,-7.51681E-2,2.9644763E-1,4.301547E-1,-1.4509265E-1,9.9372935E-1,-9.414155E-2,-3.5120085E-1,2.985808E-1,-1.8912834E-1,2.939144E-1,-1.5757451E0,2.2233711E-1,-7.314774E-2,1.5225023E-1,-1.8744095E-1,9.97158E-1,-7.0384756E-2,-7.3111486E-1,-3.410829E-1,-5.428755E-2,9.9966824E-1,1.5809524E-1,-1.7115296E-1,7.433207E-2,3.0027676E-1],"categories":[],"categories_nodes":[],"categories_segments":[],"categories_sizes":[],"default_left":[0,0,0,0,0,0,0,0,0,0,0,0,0,0,0,0,0,0,0,0,0,0,0,0,0,0,0,0,0,0,0,0,0,0,0,0,0,0,0,0,0,0,0,0,0,0,0,0,0,0,0,0,0,0,0,0,0,0,0,0,0],"id":18,"left_children":[1,3,5,-1,7,9,11,-1,-1,-1,13,15,17,19,21,23,25,27,-1,-1,-1,-1,29,-1,-1,31,33,35,37,-1,39,-1,41,43,45,-1,-1,-1,47,49,51,-1,-1,-1,-1,-1,53,-1,-1,-1,-1,55,57,-1,-1,-1,59,-1,-1,-1,-1],"loss_changes":[1.3589581E3,9.83728E0,2.3738428E2,0E0,7.714844E-1,1.0315247E1,2.0235023E2,0E0,0E0,0E0,9.261719E0,1.7165283E1,2.4238028E2,2.1654797E-1,8.497253E0,7.861867E-1,1.0877365E1,5.331116E-1,0E0,0E0,0E0,0E0,4.2962646E0,0E0,0E0,3.9921112E0,8.810974E0,1.2960148E0,6.1146545E-1,0E0,3.5093384E0,0E0,1.670723E-1,4.2712097E0,5.543766E1,0E0,0E0,0E0,1.2806466E0,1.4052335E0,2.965088E0,0E0,0E0,0E0,0E0,0E0,1.216938E0,0E0,0E0,0E0,0E0,2.5201416E0,1.3410509E0,0E0,0E0,0E0,4.9639893E-1,0E0,0E0,0E0,0E0],"parents":[2147483647,0,0,1,1,2,2,4,4,5,5,6,6,10,10,11,11,12,12,13,13,14,14,15,15,16,16,17,17,22,22,25,25,26,26,27,27,28,28,30,30,32,32,33,33,34,34,38,38,39,39,40,40,46,46,51,51,52,52,56,56],"right_children":[2,4,6,-1,8,10,12,-1,-1,-1,14,16,18,20,22,24,26,28,-1,-1,-1,-1,30,-1,-1,32,34,36,38,-1,40,-1,42,44,46,-1,-1,-1,48,50,52,-1,-1,-1,-1,-1,54,-1,-1,-1,-1,56,58,-1,-1,-1,60,-1,-1,-1,-1],"split_conditions":[2.00001E0,2.00001E0,2.00001E0,2.1842487E-1,2.00001E0,2.00001E0,2.00001E0,-4.413066E-2,-3.002501E-1,-1.8543209E-1,2.00001E0,2.00001E0,2.00001E0,2.00001E0,2.00001E0,2.00001E0,2.00001E0,2.00001E0,-3.200526E-1,-3.1414803E-2,-2.073038E-1,-2.964441E-1,2.00001E0,-1.3798531E-2,-2.8251117E-1,2.00001E0,2.00001E0,2.00001E0,2.00001E0,-1.7884648E-1,2.00001E0,1.8273814E-1,2.00001E0,2.00001E0,2.00001E0,2.2229242E-1,-7.51681E-2,2.9644763E-1,2.00001E0,2.00001E0,2.00001E0,-9.414155E-2,-3.5120085E-1,2.985808E-1,-1.8912834E-1,2.939144E-1,2.00001E0,2.2233711E-1,-7.314774E-2,1.5225023E-1,-1.8744095E-1,2.00001E0,2.00001E0,-7.3111486E-1,-3.410829E-1,-5.428755E-2,2.00001E0,1.5809524E-1,-1.7115296E-1,7.433207E-2,3.0027676E-1],"split_indices":[12,42,14,0,5,389,5,0,0,0,1158,715,87,2,1660,6,992,31,0,0,0,0,3252,0,0,82,6,0,2,0,197,0,3,32,87,0,0,0,0,42,1,0,0,0,0,0,60,0,0,0,0,665,42,0,0,0,750,0,0,0,0],"split_type":[0,0,0,0,0,0,0,0,0,0,0,0,0,0,0,0,0,0,0,0,0,0,0,0,0,0,0,0,0,0,0,0,0,0,0,0,0,0,0,0,0,0,0,0,0,0,0,0,0,0,0,0,0,0,0,0,0,0,0,0,0],"sum_hessian":[2.1684766E3,8.478428E2,1.3206338E3,2.641638E0,8.452011E2,8.0432947E2,5.163043E2,1.4346976E0,8.437664E2,3.4567401E0,8.008727E2,2.3207045E2,2.8423386E2,3.4225366E0,7.9745013E2,6.023122E0,2.2604733E2,8.475369E1,1.9948018E2,1.3069723E0,2.1155643E0,1.4323735E0,7.9601776E2,1.3112946E0,4.7118273E0,5.1625605E0,2.2088478E2,4.23293E0,8.052076E1,1.0999377E0,7.9491785E2,1.4751483E0,3.687412E0,1.6789769E2,5.298708E1,2.836554E0,1.3963763E0,7.627262E1,4.2481365E0,2.4758823E0,7.9244196E2,1.2673631E0,2.420049E0,1.6689534E2,1.0023597E0,4.3435932E1,9.55115E0,2.8387427E0,1.409394E0,1.024386E0,1.4514964E0,7.8995953E2,2.4824076E0,1.6866448E0,7.864506E0,1.5284593E0,7.884311E2,1.1067536E0,1.375654E0,1.6436317E0,7.867875E2],"tree_param":{"num_deleted":"0","num_feature":"4096","num_nodes":"61","size_leaf_vector":"1"}},{"base_weights":[-6.483155E-3,-9.913624E-1,6.2098545E-1,4.046181E-1,-2.999693E-1,9.6041125E-1,9.60313E-2,2.1899167E-1,-3.814201E-2,-1.6132545E-1,9.688596E-1,6.011467E-1,-6.424876E-1,-2.6627478E-1,9.7507936E-1,9.439405E-1,1.9540195E-1,9.1870993E-1,-1.0444643E0,-4.849541E-1,9.833663E-1,-1.3068438E-1,9.611601E-1,2.9604328E-1,-1.0351121E0,-1.0678501E-1,2.911866E-1,3.213372E-2,-3.1656033E-1,-2.6128635E-2,-1.9287391E-1,-1.6105758E-1,9.869665E-1,7.871767E-2,2.930435E-1,-9.640804E-3,-1.1244638E0,-1.2844679E-1,9.9116486E-1,1.5973063E-1,-1.24722645E-1,1.921895E-1,-1.9174291E-1,-5.603943E-2,-3.4441143E-1,9.8777205E-2,-1.5854643E-1,9.950589E-1,-6.259032E-2,-4.4783875E-2,9.9826556E-1,1.3574958E-1,-1.5877634E-1,6.338357E-2,2.999864E-1],"categories":[],"categories_nodes":[],"categories_segments":[],"categories_sizes":[],"default_left":[0,0,0,0,0,0,0,0,0,0,0,0,0,0,0,0,0,0,0,0,0,0,0,0,0,0,0,0,0,0,0,0,0,0,0,0,0,0,0,0,0,0,0,0,0,0,0,0,0,0,0,0,0,0,0],"id":19,"left_children":[1,3,5,7,-1,9,11,-1,-1,-1,13,15,17,-1,19,21,23,25,27,29,31,-1,33,-1,35,-1,-1,-1,-1,-1,-1,-1,37,39,-1,41,43,45,47,-1,-1,-1,-1,-1,-1,-1,-1,49,51,-1,53,-1,-1,-1,-1],"loss_changes":[1.0006085E3,7.9123535E0,1.7613876E2,8.7846404E-1,0E0,8.122253E0,1.4568074E2,0E0,0E0,0E0,7.7650757E0,3.2057472E1,1.0054109E2,0E0,7.6882935E0,3.397438E0,1.0563065E2,2.53063E0,1.6790161E0,1.9749779E-1,3.7753296E0,0E0,1.6379242E0,0E0,3.8863983E0,0E0,0E0,0E0,0E0,0E0,0E0,0E0,2.899292E0,9.507949E-1,0E0,2.217813E0,6.501999E-1,7.425346E-1,2.482666E0,0E0,0E0,0E0,0E0,0E0,0E0,0E0,0E0,2.305725E0,9.8764026E-1,0E0,5.6781006E-1,0E0,0E0,0E0,0E0],"parents":[2147483647,0,0,1,1,2,2,3,3,5,5,6,6,10,10,11,11,12,12,14,14,15,15,16,16,17,17,18,18,19,19,20,20,22,22,24,24,32,32,33,33,35,35,36,36,37,37,38,38,47,47,48,48,50,50],"right_children":[2,4,6,8,-1,10,12,-1,-1,-1,14,16,18,-1,20,22,24,26,28,30,32,-1,34,-1,36,-1,-1,-1,-1,-1,-1,-1,38,40,-1,42,44,46,48,-1,-1,-1,-1,-1,-1,-1,-1,50,52,-1,54,-1,-1,-1,-1],"split_conditions":[2.00001E0,2.00001E0,2.00001E0,2.00001E0,-2.999693E-1,2.00001E0,2.00001E0,2.1899167E-1,-3.814201E-2,-1.6132545E-1,2.00001E0,2.00001E0,2.00001E0,-2.6627478E-1,2.00001E0,2.00001E0,2.00001E0,2.00001E0,2.00001E0,2.00001E0,2.00001E0,-1.3068438E-1,2.00001E0,2.9604328E-1,2.00001E0,-1.0678501E-1,2.911866E-1,3.213372E-2,-3.1656033E-1,-2.6128635E-2,-1.9287391E-1,-1.6105758E-1,2.00001E0,2.00001E0,2.930435E-1,2.00001E0,2.00001E0,2.00001E0,2.00001E0,1.5973063E-1,-1.24722645E-1,1.921895E-1,-1.9174291E-1,-5.603943E-2,-3.4441143E-1,9.8777205E-2,-1.5854643E-1,2.00001E0,2.00001E0,-4.4783875E-2,2.00001E0,1.3574958E-1,-1.5877634E-1,6.338357E-2,2.999864E-1],"split_indices":[12,5,14,49,0,389,15,0,0,0,931,87,42,0,1158,755,42,196,91,2,2204,0,217,0,82,0,0,0,0,0,0,0,197,29,0,6,49,5,1,0,0,0,0,0,0,0,0,665,5,0,750,0,0,0,0],"split_type":[0,0,0,0,0,0,0,0,0,0,0,0,0,0,0,0,0,0,0,0,0,0,0,0,0,0,0,0,0,0,0,0,0,0,0,0,0,0,0,0,0,0,0,0,0,0,0,0,0,0,0,0,0,0,0],"sum_hessian":[1.6171616E3,6.291163E2,9.8804535E2,3.5411062E0,6.255752E2,5.995547E2,3.8849066E2,1.9656681E0,1.5754383E0,3.010699E0,5.96544E2,2.3081148E2,1.5767918E2,1.5187806E0,5.950252E2,1.2439217E2,1.06419304E2,3.2022953E1,1.25656235E2,3.033596E0,5.9199164E2,1.2339749E0,1.23158195E2,6.4885826E1,4.153347E1,1.0239469E0,3.0999006E1,1.0778186E0,1.24578415E2,1.3030138E0,1.7305822E0,1.048671E0,5.9094293E2,2.2514136E0,1.20906784E2,3.417655E0,3.8115818E1,2.104993E0,5.8883795E2,1.1340259E0,1.1173877E0,1.6723976E0,1.7452575E0,1.1536378E0,3.6962177E1,1.0642648E0,1.0407284E0,5.8672546E2,2.1124623E0,1.5122563E0,5.852132E2,1.0185615E0,1.0939007E0,1.5233012E0,5.8368994E2],"tree_param":{"num_deleted":"0","num_feature":"4096","num_nodes":"55","size_leaf_vector":"1"}},{"base_weights":[-6.6051767E-3,-9.889019E-1,6.1321235E-1,1.9602887E-1,-9.968913E-1,9.5128256E-1,9.494689E-2,-4.757379E-2,-2.9968634E-1,-2.5278294E-1,9.5923024E-1,7.4768615E-1,-4.5530158E-1,-1.9820923E-1,9.677536E-1,9.7030365E-1,3.3765587E-1,8.9700836E-1,-3.1310308E-1,-4.444799E-1,9.7772175E-1,-2.4121279E-2,2.9693127E-1,9.1097873E-1,-8.4203315E-1,1.6292046E-1,9.342218E-1,-3.0540578E-2,-1.7885996E-1,-1.3791306E-1,9.8211175E-1,-1.4566338E-1,2.9112276E-1,4.6881594E-2,-4.062645E-1,1.6842042E-1,-9.0472385E-2,2.9269767E-1,2.1795268E-1,-3.5988234E-2,9.871331E-1,2.1404096E-1,-3.8833246E-1,1.8907306E-1,-1.218153E-1,9.916589E-1,-1.6565036E-2,1.7291948E-1,-2.700181E-1,-3.688075E-2,9.957774E-1,9.747021E-3,2.9967868E-1],"categories":[],"categories_nodes":[],"categories_segments":[],"categories_sizes":[],"default_left":[0,0,0,0,0,0,0,0,0,0,0,0,0,0,0,0,0,0,0,0,0,0,0,0,0,0,0,0,0,0,0,0,0,0,0,0,0,0,0,0,0,0,0,0,0,0,0,0,0,0,0,0,0],"id":20,"left_children":[1,3,5,-1,7,9,11,-1,-1,-1,13,15,17,-1,19,21,23,25,-1,27,29,-1,-1,31,33,35,37,-1,-1,-1,39,-1,-1,41,-1,-1,-1,-1,43,-1,45,-1,47,-1,-1,49,-1,-1,-1,-1,51,-1,-1],"loss_changes":[7.365413E2,6.792328E0,1.2986761E2,0E0,6.4779663E-1,7.206787E0,1.0591263E2,0E0,0E0,0E0,6.815094E0,1.19791565E1,1.2833029E2,0E0,6.7038574E0,1.8560104E0,3.3891724E1,1.1885605E0,0E0,1.3733256E-1,3.243988E0,0E0,0E0,3.2464657E0,7.592697E0,8.3178914E-1,1.1674919E0,0E0,0E0,0E0,2.561737E0,0E0,0E0,2.3112717E0,0E0,0E0,0E0,0E0,1.241426E0,0E0,2.1286316E0,0E0,2.9327507E0,0E0,0E0,2.131958E0,0E0,0E0,0E0,0E0,1.2919617E0,0E0,0E0],"parents":[2147483647,0,0,1,1,2,2,4,4,5,5,6,6,10,10,11,11,12,12,14,14,15,15,16,16,17,17,19,19,20,20,23,23,24,24,25,25,26,26,30,30,33,33,38,38,40,40,42,42,45,45,50,50],"right_children":[2,4,6,-1,8,10,12,-1,-1,-1,14,16,18,-1,20,22,24,26,-1,28,30,-1,-1,32,34,36,38,-1,-1,-1,40,-1,-1,42,-1,-1,-1,-1,44,-1,46,-1,48,-1,-1,50,-1,-1,-1,-1,52,-1,-1],"split_conditions":[2.00001E0,2.00001E0,2.00001E0,1.9602887E-1,2.00001E0,2.00001E0,2.00001E0,-4.757379E-2,-2.9968634E-1,-2.5278294E-1,2.00001E0,2.00001E0,2.00001E0,-1.9820923E-1,2.00001E0,2.00001E0,2.00001E0,2.00001E0,-3.1310308E-1,2.00001E0,2.00001E0,-2.4121279E-2,2.9693127E-1,2.00001E0,2.00001E0,2.00001E0,2.00001E0,-3.0540578E-2,-1.7885996E-1,-1.3791306E-1,2.00001E0,-1.4566338E-1,2.9112276E-1,2.00001E0,-4.062645E-1,1.6842042E-1,-9.0472385E-2,2.9269767E-1,2.00001E0,-3.5988234E-2,2.00001E0,2.1404096E-1,2.00001E0,1.8907306E-1,-1.218153E-1,2.00001E0,-1.6565036E-2,1.7291948E-1,-2.700181E-1,-3.688075E-2,2.00001E0,9.747021E-3,2.9967868E-1],"split_indices":[12,42,14,0,5,1548,5,0,0,0,400,42,87,0,1158,674,87,105,0,2,2204,0,0,210,6,25,2,0,0,0,197,0,0,71,0,0,0,0,0,0,1,0,80,0,0,665,0,0,0,0,750,0,0],"split_type":[0,0,0,0,0,0,0,0,0,0,0,0,0,0,0,0,0,0,0,0,0,0,0,0,0,0,0,0,0,0,0,0,0,0,0,0,0,0,0,0,0,0,0,0,0,0,0,0,0,0,0,0,0],"sum_hessian":[1.2077399E3,4.6701364E2,7.407262E2,1.8697625E0,4.651439E2,4.4779144E2,2.9293478E2,1.3330579E0,4.6381082E2,1.511914E0,4.462795E2,1.338247E2,1.5911008E2,1.9353571E0,4.4434415E2,8.584857E1,4.797613E1,4.8079826E1,1.1103025E2,2.808862E0,4.415353E2,1.5047051E0,8.434387E1,3.2438812E1,1.5537317E1,2.5792105E0,4.5500614E1,1.3747675E0,1.4340945E0,1.028568E0,4.4050674E2,1.0314482E0,3.1407366E1,6.0118856E0,9.525432E0,1.2759618E0,1.3032489E0,4.2669964E1,2.8306499E0,1.8941534E0,4.3861258E2,2.1221604E0,3.8897252E0,1.6984516E0,1.1321983E0,4.367648E2,1.8477818E0,1.3043443E0,2.585381E0,1.501725E0,4.3526306E2,1.4562304E0,4.3380682E2],"tree_param":{"num_deleted":"0","num_feature":"4096","num_nodes":"53","size_leaf_vector":"1"}},{"base_weights":[-6.6945096E-3,-9.8618436E-1,6.043251E-1,3.2065234E-1,-2.9937586E-1,9.392794E-1,9.4593614E-2,1.9581541E-1,-4.381284E-2,-2.3333853E-1,9.500069E-1,5.78372E-1,-6.1873233E-1,-3.9777732E-1,9.616861E-1,9.054191E-1,1.8396297E-1,8.615785E-1,-1.0085998E0,-2.637941E-2,-1.6551389E-1,-1.8400043E-1,9.7106797E-1,-2.4846232E-1,2.8284752E-1,2.9222476E-1,-9.713806E-1,-9.483404E-2,2.8392556E-1,-1.3921778E-1,-3.1105414E-1,-1.18114054E-1,9.76452E-1,1.543435E-1,-2.7180612E-1,6.476541E-2,-1.0679328E0,1.5551272E-1,-1.8871297E-1,-1.8882157E-2,9.823381E-1,-1.3795371E-1,1.6021831E-1,-8.295735E-2,-3.2803032E-1,9.882922E-1,-1.4928585E-2,-3.0337008E-2,9.936249E-1,3.1359114E-2,2.993551E-1],"categories":[],"categories_nodes":[],"categories_segments":[],"categories_sizes":[],"default_left":[0,0,0,0,0,0,0,0,0,0,0,0,0,0,0,0,0,0,0,0,0,0,0,0,0,0,0,0,0,0,0,0,0,0,0,0,0,0,0,0,0,0,0,0,0,0,0,0,0,0,0],"id":21,"left_children":[1,3,5,7,-1,9,11,-1,-1,-1,13,15,17,19,21,23,25,27,29,-1,-1,-1,31,33,-1,-1,35,-1,-1,37,-1,-1,39,-1,-1,41,43,-1,-1,-1,45,-1,-1,-1,-1,47,-1,-1,49,-1,-1],"loss_changes":[5.417692E2,5.653137E0,9.5093216E1,6.922529E-1,0E0,6.9336243E0,7.7029015E1,0E0,0E0,0E0,5.6505127E0,1.6977074E1,5.296598E1,1.2236017E-1,5.502655E0,3.3593178E0,5.7090233E1,2.2332802E0,1.6216583E0,0E0,0E0,0E0,2.8129883E0,2.0036974E0,0E0,0E0,2.6181812E0,0E0,0E0,1.427067E0,0E0,0E0,2.0776062E0,0E0,0E0,1.0124197E0,1.6918755E-1,0E0,0E0,0E0,2.0629883E0,0E0,0E0,0E0,0E0,1.9935913E0,0E0,0E0,1.1142578E0,0E0,0E0],"parents":[2147483647,0,0,1,1,2,2,3,3,5,5,6,6,10,10,11,11,12,12,13,13,14,14,15,15,16,16,17,17,18,18,22,22,23,23,26,26,29,29,32,32,35,35,36,36,40,40,45,45,48,48],"right_children":[2,4,6,8,-1,10,12,-1,-1,-1,14,16,18,20,22,24,26,28,30,-1,-1,-1,32,34,-1,-1,36,-1,-1,38,-1,-1,40,-1,-1,42,44,-1,-1,-1,46,-1,-1,-1,-1,48,-1,-1,50,-1,-1],"split_conditions":[2.00001E0,2.00001E0,2.00001E0,2.00001E0,-2.9937586E-1,2.00001E0,2.00001E0,1.9581541E-1,-4.381284E-2,-2.3333853E-1,2.00001E0,2.00001E0,2.00001E0,2.00001E0,2.00001E0,2.00001E0,2.00001E0,2.00001E0,2.00001E0,-2.637941E-2,-1.6551389E-1,-1.8400043E-1,2.00001E0,2.00001E0,2.8284752E-1,2.9222476E-1,2.00001E0,-9.483404E-2,2.8392556E-1,2.00001E0,-3.1105414E-1,-1.18114054E-1,2.00001E0,1.543435E-1,-2.7180612E-1,2.00001E0,2.00001E0,1.5551272E-1,-1.8871297E-1,-1.8882157E-2,2.00001E0,-1.3795371E-1,1.6021831E-1,-8.295735E-2,-3.2803032E-1,2.00001E0,-1.4928585E-2,-3.0337008E-2,2.00001E0,3.1359114E-2,2.993551E-1],"split_indices":[12,5,14,49,0,196,15,0,0,0,1158,87,42,2,400,217,42,196,32,0,0,0,2204,25,0,0,82,0,0,3,0,0,197,0,0,147,57,0,0,0,1,0,0,0,0,665,0,0,750,0,0],"split_type":[0,0,0,0,0,0,0,0,0,0,0,0,0,0,0,0,0,0,0,0,0,0,0,0,0,0,0,0,0,0,0,0,0,0,0,0,0,0,0,0,0,0,0,0,0,0,0,0,0,0,0],"sum_hessian":[9.0323474E2,3.467562E2,5.564786E2,2.8518097E0,3.439044E2,3.3530237E2,2.2117621E2,1.4333489E0,1.4184608E0,1.6378601E0,3.336645E2,1.3190637E2,8.9269844E1,2.5825195E0,3.3108197E2,7.140289E1,6.0503475E1,1.8357445E1,7.09124E1,1.378685E0,1.2038345E0,1.579282E0,3.295027E2,2.0648549E0,6.9338036E1,3.60241E1,2.4479372E1,1.050406E0,1.730704E1,2.418087E0,6.849431E1,1.0113539E0,3.2849133E2,1.0565597E0,1.008295E0,2.1147087E0,2.2364664E1,1.007383E0,1.410704E0,1.7951771E0,3.2669617E2,1.0080155E0,1.106693E0,1.067876E0,2.1296787E1,3.2486447E2,1.8316845E0,1.4949831E0,3.233695E2,1.651242E0,3.2171826E2],"tree_param":{"num_deleted":"0","num_feature":"4096","num_nodes":"51","size_leaf_vector":"1"}},{"base_weights":[-7.259427E-3,-9.8255247E-1,5.9182596E-1,1.751676E-1,-9.9331576E-1,9.2413783E-1,9.174251E-2,-4.831254E-2,-2.9901022E-1,-2.4259451E-1,9.3693936E-1,7.045195E-1,-4.4323105E-1,-3.546271E-1,9.5079374E-1,8.902865E-1,1.572976E-1,8.2255024E-1,-3.0574232E-1,-2.1841642E-2,-1.5301543E-1,-1.328726E-1,9.626744E-1,9.369558E-1,-2.0418838E-1,2.797171E-1,-4.038343E-1,-4.446849E-2,8.850717E-1,-2.3572752E-2,9.709303E-1,-1.2906687E-2,9.6987414E-1,2.863981E-1,9.025695E-3,-6.8552345E-2,9.776308E-1,7.60378E-2,2.937198E-1,1.5154919E-1,-1.4837661E-1,9.8547846E-1,-1.0069547E-2,-2.4933409E-2,9.924355E-1,2.3097321E-2,2.9896966E-1],"categories":[],"categories_nodes":[],"categories_segments":[],"categories_sizes":[],"default_left":[0,0,0,0,0,0,0,0,0,0,0,0,0,0,0,0,0,0,0,0,0,0,0,0,0,0,0,0,0,0,0,0,0,0,0,0,0,0,0,0,0,0,0,0,0,0,0],"id":22,"left_children":[1,3,5,-1,7,9,11,-1,-1,-1,13,15,17,19,21,23,25,27,-1,-1,-1,-1,29,31,-1,-1,-1,-1,33,-1,35,-1,37,-1,39,-1,41,-1,-1,-1,-1,43,-1,-1,45,-1,-1],"loss_changes":[3.9718362E2,4.941101E0,6.989772E1,0E0,5.642853E-1,6.367264E0,5.5788975E1,0E0,0E0,0E0,4.837372E0,7.917713E0,6.714917E1,1.1168E-1,4.550949E0,4.9604034E0,2.607954E1,1.8912449E0,0E0,0E0,0E0,0E0,2.2022552E0,1.9024811E0,0E0,0E0,0E0,0E0,1.6610012E0,0E0,2.195938E0,0E0,1.1962509E-1,0E0,1.0056744E0,0E0,1.9714355E0,0E0,0E0,0E0,0E0,1.8846588E0,0E0,0E0,8.341522E-1,0E0,0E0],"parents":[2147483647,0,0,1,1,2,2,4,4,5,5,6,6,10,10,11,11,12,12,13,13,14,14,15,15,16,16,17,17,22,22,23,23,28,28,30,30,32,32,34,34,36,36,41,41,44,44],"right_children":[2,4,6,-1,8,10,12,-1,-1,-1,14,16,18,20,22,24,26,28,-1,-1,-1,-1,30,32,-1,-1,-1,-1,34,-1,36,-1,38,-1,40,-1,42,-1,-1,-1,-1,44,-1,-1,46,-1,-1],"split_conditions":[2.00001E0,2.00001E0,2.00001E0,1.751676E-1,2.00001E0,2.00001E0,2.00001E0,-4.831254E-2,-2.9901022E-1,-2.4259451E-1,2.00001E0,2.00001E0,2.00001E0,2.00001E0,2.00001E0,2.00001E0,2.00001E0,2.00001E0,-3.0574232E-1,-2.1841642E-2,-1.5301543E-1,-1.328726E-1,2.00001E0,2.00001E0,-2.0418838E-1,2.797171E-1,-4.038343E-1,-4.446849E-2,2.00001E0,-2.3572752E-2,2.00001E0,-1.2906687E-2,2.00001E0,2.863981E-1,2.00001E0,-6.8552345E-2,2.00001E0,7.60378E-2,2.937198E-1,1.5154919E-1,-1.4837661E-1,2.00001E0,-1.0069547E-2,-2.4933409E-2,2.00001E0,2.3097321E-2,2.9896966E-1],"split_indices":[12,42,14,0,5,976,5,0,0,0,1158,6,87,2,389,32,87,31,0,0,0,0,197,992,0,0,0,0,2,0,1273,0,279,0,103,0,1,0,0,0,0,665,0,0,33,0,0],"split_type":[0,0,0,0,0,0,0,0,0,0,0,0,0,0,0,0,0,0,0,0,0,0,0,0,0,0,0,0,0,0,0,0,0,0,0,0,0,0,0,0,0,0,0,0,0,0,0],"sum_hessian":[6.7778326E2,2.5766776E2,4.2011548E2,1.3950061E0,2.5627277E2,2.5188603E2,1.6822943E2,1.23483E0,2.5503793E2,1.3913295E0,2.504947E2,7.8265045E1,8.9964386E1,2.397442E0,2.4809727E2,5.7961704E1,2.0303343E1,2.7998589E1,6.19658E1,1.3741708E0,1.0232714E0,1.7903765E0,2.4630688E2,5.6681355E1,1.2803512E0,1.3647244E1,6.656099E0,1.6111528E0,2.6387436E1,1.8705695E0,2.4443633E2,1.832125E0,5.4849228E1,2.4362467E1,2.0249686E0,1.1740265E0,2.432623E2,1.0567892E0,5.379244E1,1.0185057E0,1.006463E0,2.4141417E2,1.8481224E0,1.4907602E0,2.3992342E2,1.1657692E0,2.3875764E2],"tree_param":{"num_deleted":"0","num_feature":"4096","num_nodes":"47","size_leaf_vector":"1"}},{"base_weights":[-7.746943E-3,-9.783123E-1,5.7768875E-1,2.5780493E-1,-2.985573E-1,9.048758E-1,8.92801E-2,1.7541346E-1,-5.2931663E-2,-3.1359777E-1,9.2076266E-1,5.400874E-1,-5.9425205E-1,-9.5004566E-2,9.3727875E-1,8.429311E-1,1.6326885E-1,7.8942674E-1,-9.755247E-1,-1.6075745E-1,9.4923645E-1,-1.138788E-1,8.990687E-1,2.8608626E-1,-9.0557396E-1,-6.9690466E-2,2.7226266E-1,-3.3175915E-2,-3.0292922E-1,-7.0640706E-2,9.575788E-1,9.3968505E-1,5.066337E-1,3.1139778E-2,-3.0218205E-1,-1.952418E-2,9.68308E-1,3.6612532E-1,2.9002404E-1,2.2567573E-1,4.4374964E-3,9.7856975E-1,-8.637986E-3,-3.1052413E-3,1.6451932E-1,-2.0481119E-2,9.875858E-1,-1.3646735E-2,2.9850036E-1],"categories":[],"categories_nodes":[],"categories_segments":[],"categories_sizes":[],"default_left":[0,0,0,0,0,0,0,0,0,0,0,0,0,0,0,0,0,0,0,0,0,0,0,0,0,0,0,0,0,0,0,0,0,0,0,0,0,0,0,0,0,0,0,0,0,0,0,0,0],"id":23,"left_children":[1,3,5,7,-1,9,11,-1,-1,-1,13,15,17,-1,19,21,23,25,27,-1,29,-1,31,-1,33,-1,-1,-1,-1,-1,35,37,39,-1,-1,-1,41,43,-1,-1,-1,45,-1,-1,-1,-1,47,-1,-1],"loss_changes":[2.908263E2,4.274399E0,5.093862E1,5.841619E-1,0E0,6.8826447E0,4.012916E1,0E0,0E0,0E0,4.181366E0,8.805773E0,2.8107088E1,0E0,3.8171234E0,3.3067589E0,3.141054E1,1.6284313E0,1.10466E0,0E0,2.0703125E0,0E0,1.8716049E-1,0E0,1.7351809E0,0E0,0E0,0E0,0E0,0E0,2.0990143E0,2.1315384E-1,7.22469E-1,0E0,0E0,0E0,1.9077301E0,2.2909349E-1,0E0,0E0,0E0,1.7837982E0,0E0,0E0,0E0,0E0,1.4269714E0,0E0,0E0],"parents":[2147483647,0,0,1,1,2,2,3,3,5,5,6,6,10,10,11,11,12,12,14,14,15,15,16,16,17,17,18,18,20,20,22,22,24,24,30,30,31,31,32,32,36,36,37,37,41,41,46,46],"right_children":[2,4,6,8,-1,10,12,-1,-1,-1,14,16,18,-1,20,22,24,26,28,-1,30,-1,32,-1,34,-1,-1,-1,-1,-1,36,38,40,-1,-1,-1,42,44,-1,-1,-1,46,-1,-1,-1,-1,48,-1,-1],"split_conditions":[2.00001E0,2.00001E0,2.00001E0,2.00001E0,-2.985573E-1,2.00001E0,2.00001E0,1.7541346E-1,-5.2931663E-2,-3.1359777E-1,2.00001E0,2.00001E0,2.00001E0,-9.5004566E-2,2.00001E0,2.00001E0,2.00001E0,2.00001E0,2.00001E0,-1.6075745E-1,2.00001E0,-1.138788E-1,2.00001E0,2.8608626E-1,2.00001E0,-6.9690466E-2,2.7226266E-1,-3.3175915E-2,-3.0292922E-1,-7.0640706E-2,2.00001E0,2.00001E0,2.00001E0,3.1139778E-2,-3.0218205E-1,-1.952418E-2,2.00001E0,2.00001E0,2.9002404E-1,2.2567573E-1,4.4374964E-3,2.00001E0,-8.637986E-3,-3.1052413E-3,1.6451932E-1,-2.0481119E-2,2.00001E0,-1.3646735E-2,2.9850036E-1],"split_indices":[12,5,14,28,0,2456,15,0,0,0,1158,87,42,0,400,217,42,248,32,0,688,0,2,0,82,0,0,0,0,0,197,195,5,0,0,0,1,9,0,0,0,665,0,0,0,0,750,0,0],"split_type":[0,0,0,0,0,0,0,0,0,0,0,0,0,0,0,0,0,0,0,0,0,0,0,0,0,0,0,0,0,0,0,0,0,0,0,0,0,0,0,0,0,0,0,0,0,0,0,0,0],"sum_hessian":[5.0984E2,1.9157162E2,3.1826834E2,2.3883183E0,1.891833E2,1.9008015E2,1.281882E2,1.1648747E0,1.2234436E0,1.0123316E0,1.8906783E2,7.7370316E1,5.0817883E1,2.2508674E0,1.8681696E2,4.2209873E1,3.5160442E1,1.074665E1,4.007123E1,1.1514455E0,1.8566551E2,1.6001871E0,4.0609688E1,2.0275555E1,1.4884885E1,1.0134368E0,9.733213E0,1.68692E0,3.838431E1,1.1078781E0,1.8455763E2,3.553715E1,5.072533E0,1.3605632E0,1.3524322E1,1.8635765E0,1.8269406E2,2.255802E0,3.3281353E1,3.0299575E0,2.0425756E0,1.808514E2,1.8426723E0,1.043568E0,1.2122339E0,1.4881837E0,1.793632E2,1.2417003E0,1.781215E2],"tree_param":{"num_deleted":"0","num_feature":"4096","num_nodes":"49","size_leaf_vector":"1"}},{"base_weights":[-7.388798E-3,-9.7274834E-1,5.597571E-1,2.330702E-1,-2.9797792E-1,8.820141E-1,8.9658886E-2,1.6627184E-1,-4.9943905E-2,-2.660769E-1,9.0062326E-1,9.201581E-1,-2.6694804E-1,-2.9626402E-1,9.20366E-1,-5.7171524E-2,2.899401E-1,7.6026267E-1,-9.3268484E-1,1.5686065E-1,-2.995859E-1,-1.0583553E-1,9.3448406E-1,-8.847614E-2,8.221477E-1,1.4842004E-1,-9.8113704E-1,5.1787603E-3,9.505223E-1,2.99688E-1,9.290843E-1,4.621453E-3,-1.0101709E0,1.7027803E-1,-1.8656226E-1,-2.1215545E-2,9.6228814E-1,2.0379512E-1,-1.8653412E-1,6.885511E-2,2.8592718E-1,-6.6986956E-2,-3.0744016E-1,9.74643E-1,-3.3625406E-3,1.7425502E-2,9.84774E-1,1.8238232E-2,2.9785734E-1],"categories":[],"categories_nodes":[],"categories_segments":[],"categories_sizes":[],"default_left":[0,0,0,0,0,0,0,0,0,0,0,0,0,0,0,0,0,0,0,0,0,0,0,0,0,0,0,0,0,0,0,0,0,0,0,0,0,0,0,0,0,0,0,0,0,0,0,0,0],"id":24,"left_children":[1,3,5,7,-1,9,11,-1,-1,-1,13,15,17,19,21,-1,-1,23,25,-1,-1,-1,27,-1,29,-1,31,33,35,37,39,-1,41,-1,-1,-1,43,-1,-1,-1,-1,-1,-1,45,-1,-1,47,-1,-1],"loss_changes":[2.1244444E2,3.7830963E0,3.6950966E1,5.044086E-1,0E0,5.568939E0,3.0017809E1,0E0,0E0,0E0,3.6728973E0,1.7490444E0,4.9333427E1,2.3007784E0,2.87854E0,0E0,0E0,2.104292E0,3.5002823E0,0E0,0E0,0E0,2.0895004E0,0E0,1.2410202E0,0E0,1.2451134E0,1.5483338E0,1.7278061E0,2.5551763E0,1.5238762E-1,0E0,2.4670029E-1,0E0,0E0,0E0,1.6542282E0,0E0,0E0,0E0,0E0,0E0,0E0,1.195694E0,0E0,0E0,9.3595886E-1,0E0,0E0],"parents":[2147483647,0,0,1,1,2,2,3,3,5,5,6,6,10,10,11,11,12,12,13,13,14,14,17,17,18,18,22,22,24,24,26,26,27,27,28,28,29,29,30,30,32,32,36,36,43,43,46,46],"right_children":[2,4,6,8,-1,10,12,-1,-1,-1,14,16,18,20,22,-1,-1,24,26,-1,-1,-1,28,-1,30,-1,32,34,36,38,40,-1,42,-1,-1,-1,44,-1,-1,-1,-1,-1,-1,46,-1,-1,48,-1,-1],"split_conditions":[2.00001E0,2.00001E0,2.00001E0,2.00001E0,-2.9797792E-1,2.00001E0,2.00001E0,1.6627184E-1,-4.9943905E-2,-2.660769E-1,2.00001E0,2.00001E0,2.00001E0,2.00001E0,2.00001E0,-5.7171524E-2,2.899401E-1,2.00001E0,2.00001E0,1.5686065E-1,-2.995859E-1,-1.0583553E-1,2.00001E0,-8.847614E-2,2.00001E0,1.4842004E-1,2.00001E0,2.00001E0,2.00001E0,2.00001E0,2.00001E0,4.621453E-3,2.00001E0,1.7027803E-1,-1.8656226E-1,-2.1215545E-2,2.00001E0,2.0379512E-1,-1.8653412E-1,6.885511E-2,2.8592718E-1,-6.6986956E-2,-3.0744016E-1,2.00001E0,-3.3625406E-3,1.7425502E-2,2.00001E0,1.8238232E-2,2.9785734E-1],"split_indices":[12,5,14,49,0,2456,42,0,0,0,750,674,87,32,389,